/***********************************************************************************************************************
* DISCLAIMER
* This software is supplied by Renesas Electronics Corporation and is only intended for use with Renesas products. No 
* other uses are authorized. This software is owned by Renesas Electronics Corporation and is protected under all 
* applicable laws, including copyright laws. 
* THIS SOFTWARE IS PROVIDED 'AS IS' AND RENESAS MAKES NO WARRANTIES REGARDING
* THIS SOFTWARE, WHETHER EXPRESS, IMPLIED OR STATUTORY, INCLUDING BUT NOT LIMITED TO WARRANTIES OF MERCHANTABILITY, 
* FITNESS FOR A PARTICULAR PURPOSE AND NON-INFRINGEMENT. ALL SUCH WARRANTIES ARE EXPRESSLY DISCLAIMED. TO THE MAXIMUM
* EXTENT PERMITTED NOT PROHIBITED BY LAW, NEITHER RENESAS ELECTRONICS CORPORATION NOR ANY OF ITS AFFILIATED COMPANIES 
* SHALL BE LIABLE FOR ANY DIRECT, INDIRECT, SPECIAL, INCIDENTAL OR CONSEQUENTIAL DAMAGES FOR ANY REASON RELATED TO THIS 
* SOFTWARE, EVEN IF RENESAS OR ITS AFFILIATES HAVE BEEN ADVISED OF THE POSSIBILITY OF SUCH DAMAGES.
* Renesas reserves the right, without notice, to make changes to this software and to discontinue the availability of 
* this software. By using this software, you agree to the additional terms and conditions found by accessing the 
* following link:
* http://www.renesas.com/disclaimer 
*
* Changed from original python code to C source code.
* Copyright (C) 2017 Renesas Electronics Corporation. All rights reserved.
***********************************************************************************************************************/
/***********************************************************************************************************************
* File Name    : weights_ocr.h
* Version      : 1.00
* Description  : Weights and biases of the layers
***********************************************************************************************************************/
/**********************************************************************************************************************
* History : DD.MM.YYYY Version  Description
*         : 16.06.2017 1.00     First Release
***********************************************************************************************************************/

#ifndef WEIGHTS_OCR_H_
#define WEIGHTS_OCR_H_
const TPrecision Conv22__ocr_weights[] = {-0.1028517335653305,-0.06815360486507416,-0.09679990261793137,-0.0853780061006546,-0.07220429182052612,0.05599680915474892,0.00205184705555439,0.08763112127780914,-0.02122156135737896,0.03259175643324852,-0.0014197372365742922,-0.12636417150497437,-0.14787571132183075,-0.1691073775291443,0.1533217877149582,0.21230317652225494,0.2727283835411072,0.11078311502933502,0.031246762722730637,-0.0035599744878709316,0.06091253459453583,0.2038429081439972,-0.186580091714859,-0.15434488654136658,-0.09231195598840714,0.12594129145145416,0.2146700918674469,0.29268282651901245,0.19771578907966614,0.18370822072029114,0.22067053616046906,0.16199511289596558,0.11013098806142807,-0.2159634232521057,-0.08073461800813675,-0.09658515453338623,0.22233444452285767,0.238728865981102,0.2281268984079361,0.03839690983295441,0.30998191237449646,0.1343931406736374,0.02074379287660122,0.10425525158643723,-0.15340042114257812,-0.05530618876218796,-0.1563701182603836,0.16837099194526672,0.2096848487854004,0.20361919701099396,0.20624740421772003,0.2992234230041504,0.27056559920310974,0.3042106330394745,0.3614392876625061,-0.0826222151517868,-0.18185508251190186,-0.2091720700263977,-0.055031150579452515,-0.0638403445482254,0.014766981825232506,0.0927162915468216,0.20759464800357819,0.22365537285804749,0.21655268967151642,0.23880702257156372,-0.1814301609992981,-0.1329760104417801,0.015849299728870392,0.04169759899377823,0.11421363055706024,0.09676680713891983,0.2769979238510132,0.13932335376739502,0.03473646938800812,0.03603438660502434,-0.03353678807616234,-0.1889921873807907,0.00783508364111185,-0.15800723433494568,-0.04093991219997406,-0.04579399898648262,0.10588245838880539,-0.0010765284532681108,0.04416226968169212,0.038723286241292953,0.13452038168907166,0.012541661038994789,-0.06749629974365234,0.023600025102496147,-0.0658562183380127,0.07164720445871353,-0.11930593103170395,-0.01735459640622139,0.11346014589071274,0.09779326617717743,0.08858266472816467,0.018394626677036285,0.19185566902160645,-0.17607665061950684,0.0013199718669056892,0.016332633793354034,0.057830873876810074,-0.006834783125668764,-0.05336674675345421,-0.0012822957942262292,0.1806127279996872,0.10454148799180984,-0.005506355781108141,0.06409607827663422,-0.13111816346645355,0.09028119593858719,-0.024213921278715134,-0.0005907774902880192,-0.029044292867183685,0.10642785578966141,0.1403961032629013,0.13992616534233093,0.03374917805194855,-0.052292149513959885,0.015641523525118828,0.07006965577602386,0.06858284771442413,0.004090075846761465,0.09547296166419983,-0.04817112162709236,0.002781130373477936,-0.12793900072574615,-0.11973288655281067,-0.08382675796747208,-0.010096774436533451,0.02996916137635708,0.0316602997481823,-0.0014981706626713276,-0.02604229561984539,0.12313025444746017,0.03925386071205139,0.09504814445972443,-0.17283225059509277,-0.30551090836524963,-0.226702019572258,-0.15268675982952118,-0.07744712382555008,-0.08828944712877274,0.01656017266213894,0.04874010756611824,0.1802457571029663,-0.04197150468826294,-0.07036470621824265,-0.18438035249710083,-0.14336298406124115,-0.06522669643163681,-0.12243691086769104,0.004909860901534557,-0.00940446462482214,0.03968733549118042,-0.06928832828998566,0.15253649652004242,-0.083917997777462,-0.09830962121486664,-0.2778674066066742,-0.15256322920322418,-0.23163725435733795,-0.23831817507743835,-0.06722200661897659,-0.08800797909498215,0.07029081881046295,-0.11101312190294266,0.15396226942539215,0.015794778242707253,-0.17573130130767822,-0.15578721463680267,-0.10780435055494308,-0.04033677279949188,-0.047745950520038605,0.04926077648997307,-0.034249961376190186,-0.012375656515359879,-0.052508652210235596,-0.07045051455497742,-0.08840770274400711,-0.2164834588766098,-0.15720941126346588,-0.03351174667477608,-0.03088308498263359,-0.05212710052728653,0.04067353531718254,-0.07086554169654846,-0.025980880483984947,0.06621846556663513,0.07839714735746384,0.09045781940221786,-0.06711253523826599,0.08431530743837357,-0.03921966627240181,-0.12076471745967865,-0.1829553097486496,-0.24163849651813507,-0.05958711728453636,0.08783069252967834,-0.07125382125377655,0.10177916288375854,0.05386030301451683,0.07225688546895981,-0.10904616862535477,-0.06918453425168991,-0.10504603385925293,0.05925087258219719,-0.2133449912071228,-0.008068297989666462,0.07133551687002182,-0.0483185276389122,0.1414307951927185,-0.09302089363336563,-0.04729178175330162,-0.025877151638269424,-0.03152377903461456,0.048622943460941315,-0.00417756661772728,0.04839673638343811,-0.08125398308038712,0.06991218030452728,0.0001462881191400811,0.1570776104927063,0.06276737153530121,-0.08212784677743912,0.027622302994132042,0.039426639676094055,0.110590860247612,-0.01105682086199522,-0.010333375073969364,-0.003225446678698063,0.04121117666363716,0.019397253170609474,0.04975871369242668,0.04323173314332962,0.16654199361801147,0.11120323091745377,0.09176519513130188,0.045759089291095734,0.025365525856614113,-0.018465209752321243,0.00517121609300375,0.055505216121673584,-0.21586041152477264,-0.22472786903381348,-0.21428126096725464,-0.03743746131658554,-0.05269671976566315,0.1169789656996727,0.06368603557348251,0.1226576492190361,0.10766444355249405,-0.08727408200502396,-0.14153479039669037,-0.0978524312376976,0.03518334776163101,0.06043596565723419,0.06921981275081635,0.05962330102920532,0.05489974468946457,0.12130475044250488,0.06884194910526276,0.20457462966442108,-0.19260774552822113,0.06846483051776886,0.047945309430360794,0.07103795558214188,0.04130617529153824,0.09874605387449265,0.04531070217490196,0.16323179006576538,0.1728581339120865,0.10862065106630325,0.1227380558848381,-0.1332237273454666,0.08684489876031876,0.015299261547625065,0.19086529314517975,0.07464680075645447,0.20846322178840637,0.17245188355445862,0.2274947613477707,0.025257453322410583,0.03341170772910118,0.10738401114940643,-0.019723905250430107,0.12989415228366852,-0.026746388524770737,0.12230487912893295,0.16818523406982422,0.21831271052360535,0.22233709692955017,0.2761038541793823,0.1529567837715149,-0.012453739531338215,0.09944846481084824,-0.008522163145244122,-0.06765884160995483,-0.0989367887377739,-0.11212775111198425,0.018074672669172287,0.05395732820034027,0.13537447154521942,0.13526377081871033,0.024966280907392502,-0.030641021206974983,-0.002297261031344533,0.0080783162266016,0.08721418678760529,0.09412533789873123,0.0005148741183802485,0.02214842475950718,0.030221709981560707,0.14992403984069824,-0.016459830105304718,-0.051566414535045624,-0.05620275065302849,-0.10654008388519287,-0.03303220123052597,0.20220571756362915,-0.12488841265439987,-0.05199335888028145,-0.14169619977474213,-0.009793037548661232,-0.1760663390159607,-0.05567913129925728,-0.10095839947462082,0.0736180990934372,-0.16453613340854645,0.01863960362970829,-0.03497274965047836,-0.0956071987748146,0.03734523802995682,-0.18011248111724854,-0.16080550849437714,-0.004971018992364407,-0.08932869136333466,-0.013869846239686012,-0.08645211160182953,-0.010959522798657417,-0.15791219472885132,-0.011109798215329647,-0.0860443115234375,0.0022422922775149345,-0.00892140157520771,-0.23777031898498535,-0.24042324721813202,-0.085177943110466,-0.09825670719146729,-0.16807380318641663,-0.12505322694778442,-0.014467048458755016,0.03985515236854553,-0.024914540350437164,0.018369067460298538,-0.007795924320816994,-0.08252432942390442,-0.13701701164245605,-0.0831412672996521,-0.20902086794376373,-0.16548457741737366,-0.1587013602256775,-0.15840420126914978,-0.015424446202814579,-0.06345498561859131,-0.08427702635526657,-0.14839284121990204,0.1033976674079895,0.10057046264410019,-0.10906532406806946,-0.05516060069203377,0.05871507525444031,0.1478501409292221,-0.1058630719780922,-0.07430805265903473,-0.14534056186676025,0.04306839779019356,-0.11217328161001205,0.0877019464969635,0.07222521305084229,-0.0756276547908783,0.09524724632501602,0.021678732708096504,0.17088350653648376,-0.10547909140586853,-0.22360607981681824,-0.06065848842263222,0.0779852494597435,-0.010565340518951416,0.21942350268363953,0.22588562965393066,0.14069931209087372,0.10458170622587204,0.06506376713514328,0.08707013726234436,-0.1728297621011734,-0.22296574711799622,0.08908607810735703,0.06948055326938629,-0.10054396092891693,0.14990605413913727,0.17451369762420654,-0.057180192321538925,-0.01127301249653101,0.3302723467350006,0.16038674116134644,-0.08416789025068283,-0.004433335270732641,0.16544614732265472,-0.03288056701421738,-0.07322840392589569,0.17186841368675232,0.1614234447479248,0.09923876821994781,0.04859789460897446,0.12360978126525879,0.2141610085964203,-0.3313780128955841,-0.08420569449663162,0.11713248491287231,0.041584838181734085,-0.004034643527120352,0.19384020566940308,0.19621926546096802,-0.08466340601444244,0.07975493371486664,0.010811791755259037,0.16029460728168488,-0.14611200988292694,0.02245609648525715,-0.09880169481039047,-0.00524542573839426,-0.04361025616526604,0.042328447103500366,0.059509143233299255,0.0447593592107296,-0.008913050405681133,0.09938912838697433,0.1371755599975586,-0.07020913809537888,-0.07075361907482147,0.009171320125460625,0.011101659387350082,0.04743373394012451,0.013614838011562824,0.08404101431369781,-0.04984515905380249,-0.011330023407936096,0.0813361406326294,0.004574799444526434,-0.07958991080522537,-0.012448730878531933,0.032634735107421875,0.03137337788939476,0.02046360820531845,0.08739110082387924,0.07733822613954544,0.016624310985207558,0.04570038989186287,0.03467058390378952,0.111977219581604,-0.1233520358800888,0.06430256366729736,0.13026762008666992,-0.023631054908037186,0.06671293079853058,-0.07052222639322281,0.1656867265701294,-0.05243070796132088,0.0446012020111084,-0.040115032345056534,-0.07150119543075562,-0.06832551956176758,0.022448640316724777,-0.007565611507743597,-0.17052435874938965,0.058174531906843185,-0.1373068392276764,-0.25074389576911926,0.13546113669872284,-0.09845267236232758,0.021479658782482147,0.02804902009665966,0.02309941127896309,0.16162662208080292,0.005841590464115143,-0.011641665361821651,-0.133734330534935,0.1499355435371399,0.18559053540229797,-0.13062596321105957,-0.051923587918281555,0.025135720148682594,0.08008923381567001,0.11572077125310898,0.10250578075647354,-0.03665490075945854,0.0553002767264843,-0.1548622101545334,0.015736885368824005,0.09210976213216782,-0.08060105890035629,0.046178825199604034,-0.062218211591243744,0.1436387151479721,0.04871835187077522,-0.12497781217098236,0.10703930258750916,0.07950194925069809,-0.10788832604885101,0.09117209911346436,0.15965747833251953,0.07430592179298401,0.0925627201795578,-0.005202131811529398,0.11639364808797836,0.14825142920017242,-0.12415704131126404,0.22767284512519836,0.10399883985519409,-0.23078599572181702,0.0011393773602321744,-0.00135600205976516,-0.14585016667842865,-0.09033422917127609,0.1941140741109848,0.09253755956888199,0.20427024364471436,0.09126114100217819,0.2721955180168152,0.026594849303364754,-0.08396168798208237,0.02371412143111229,-0.034081969410181046,0.040572457015514374,0.12049148976802826,0.06380437314510345,0.1382349133491516,-0.09919252246618271,0.10753505676984787,0.275051087141037,0.04116664081811905,-0.055875252932310104,0.02346433885395527,0.05322539061307907,-0.2046789824962616,0.10755044221878052,0.015230441465973854,0.05378342047333717,0.035148900002241135,0.1049579307436943,0.007769515737891197,0.10927747189998627,-0.0038548302836716175,0.04722965881228447,-0.06556247174739838,-0.044651445001363754,0.06512553244829178,-0.029437243938446045,0.2024148404598236,0.23757381737232208,0.08305726200342178,0.08742181956768036,0.059135910123586655,0.0764237642288208,-0.10228937119245529,0.055650681257247925,-0.17299050092697144,-0.014417145401239395,0.13161031901836395,0.05613389238715172,0.1024157702922821,0.128456249833107,0.14546801149845123,0.02208716981112957,0.03054024837911129,-0.03673796355724335,-0.031025705859065056,0.010131402872502804,-0.04855182766914368,0.039941269904375076,0.11276300251483917,0.04639206826686859,0.1840382069349289,0.13806991279125214,0.019913453608751297,0.10625839978456497,-0.08467184007167816,0.18123969435691833,0.031216410920023918,0.0575077198445797,-0.0961347222328186,-0.07028057426214218,0.16764339804649353,0.0644027441740036,-0.06005586311221123,-0.21430332958698273,0.11213795840740204,-0.0062172007746994495,-0.14889521896839142,0.18304051458835602,-0.1292242705821991,-0.026518840342760086,-0.05216443911194801,-0.005745824426412582,0.05900123715400696,-0.10750450938940048,0.0962202176451683,-0.04431410878896713,0.12602519989013672,-0.10576588660478592,-0.00010476208262844011,0.006715693045407534,-0.09028647094964981,-0.21120017766952515,0.0525348037481308,0.07732511311769485,-0.16342994570732117,-0.017418334260582924,-0.1290992796421051,0.061347998678684235,0.054335787892341614,-0.004222478251904249,0.06688298285007477,-0.08586239814758301,-0.1795703023672104,-0.1522165834903717,-0.18579183518886566,-0.07886319607496262,-0.03148769587278366,-0.16860409080982208,-0.09310275316238403,0.06582863628864288,-0.0699039176106453,-0.0362476222217083,-0.26299604773521423,-0.2503579556941986,-0.10111812502145767,-0.0612373910844326,0.06530075520277023,-0.07361248880624771,-0.36350035667419434,-0.14135321974754333,-0.2289803922176361,-0.3119606375694275,-0.173814594745636,0.12329161167144775,-0.4014092981815338,-0.04722961038351059,0.09584696590900421,0.17651993036270142,-0.016218727454543114,-0.22980837523937225,-0.02013769932091236,-0.09130818396806717,-0.09162508696317673,-0.10604827105998993,-0.1407906860113144,-0.22661352157592773,-0.19835196435451508,-0.07847314327955246,0.043431222438812256,-0.11687895655632019,-0.19692417979240417,-0.0326530821621418,-0.011268394999206066,-0.2356633096933365,-0.03894973173737526,-0.12025012075901031,-0.1940612494945526,-0.09368853271007538,-0.06170310080051422,-0.24341119825839996,-0.1368332803249359,-0.1548931747674942,-0.03982167690992355,-0.003892758162692189,-0.046744924038648605,-0.19792120158672333,-0.02886173687875271,-0.0990704894065857,-0.016888970509171486,-0.23962268233299255,-0.13050806522369385,-0.10361359268426895,-0.0573970265686512,-0.16889609396457672,-0.11063788831233978,-0.15047720074653625,-0.059346769005060196,0.056986309587955475,-0.2655482888221741,-0.2605040967464447,-0.18305979669094086,-0.14609119296073914,-0.11079590767621994,-0.20949101448059082,-0.08125399798154831,-0.0903199091553688,-0.0638575479388237,-0.056155070662498474,0.017922019585967064,-0.1576571762561798,-0.23815283179283142,-0.057947587221860886,0.06635969877243042,-0.12384393811225891,-0.03736215457320213,-0.19239288568496704,0.21324166655540466,-0.02949896641075611,-0.05251780524849892,-0.19004935026168823,-0.07457558065652847,-0.1341213434934616,-0.08328329026699066,-0.11258554458618164,-0.25395041704177856,0.10751091688871384,-0.03419376164674759,0.016202181577682495,0.24877595901489258,-0.05195477977395058,0.027637707069516182,0.08600428700447083,0.18628187477588654,-0.02410166896879673,0.1005454808473587,0.16102413833141327,-0.12157700955867767,-0.48212727904319763,0.18652543425559998,-0.021921545267105103,-0.15457653999328613,0.2609117925167084,-0.08504841476678848,0.062204353511333466,-0.10213672369718552,-0.03353692963719368,0.06641567498445511,-0.29368856549263,0.0714261457324028,0.12177755683660507,-0.026701588183641434,-0.014707410708069801,-0.022621601819992065,-0.07960494607686996,0.14407563209533691,-0.27080580592155457,-0.009191627614200115,0.2486516535282135,0.10748507082462311,-0.11597583442926407,0.15943917632102966,0.1109173595905304,0.16068530082702637,-0.010471329092979431,-0.04377095773816109,0.05836363509297371,-0.04129696637392044,-0.12581872940063477,-0.06392459571361542,0.24733048677444458,0.06523249298334122,-0.0615963414311409,0.15972858667373657,0.0021209591068327427,-0.016764456406235695,0.19195988774299622,0.16657982766628265,0.1716671586036682,0.24405381083488464,0.09976590424776077,-0.2825254499912262,0.2655040919780731,-0.03748838230967522,-0.13135984539985657,-0.16652102768421173,0.21548637747764587,0.07636356353759766,-0.10081736743450165,0.07854782789945602,0.026483960449695587,0.004633813165128231,0.06070716306567192,-0.0779246985912323,-0.009171055629849434,0.3303264379501343,-0.15045863389968872,0.19659438729286194,0.3192085027694702,0.005636347457766533,0.32967856526374817,-0.009658170863986015,0.025304310023784637,0.06104071065783501,0.2860011160373688,0.12517186999320984,0.20244944095611572,-0.06956657022237778,-0.10178062319755554,0.3321390450000763,0.5323279500007629,0.0889955461025238,0.25560444593429565,0.16848821938037872,0.17019930481910706,-0.0991051122546196,0.14782433211803436,-0.1224597617983818,0.13603809475898743,0.17581020295619965,0.03804510831832886,0.1476663053035736,-0.28143054246902466,0.018446773290634155,-0.11582858860492706,0.4428163766860962,0.38271501660346985,-0.06662663072347641,-0.10681086033582687,0.250709593296051,0.10753081738948822,0.0854586511850357,0.1317320466041565,0.3896797001361847,0.33314061164855957,-0.1451251059770584,0.43580541014671326,0.1256287693977356,0.04450702667236328,0.15390817821025848,0.03968926519155502,0.34743112325668335,0.041262250393629074,0.587517499923706,0.11639074981212616,-0.018174052238464355,-0.294748455286026,0.169291153550148,0.19887426495552063,0.1951836794614792,-0.1036810353398323,-0.18408851325511932,-0.036340221762657166,-0.05566851422190666,0.2159041166305542,-0.07195363938808441,0.07930642366409302,0.021856101229786873,-0.14162608981132507,-0.342582643032074,0.2025824338197708,0.03194969519972801,-0.1712527722120285,0.20006752014160156,-0.07644278556108475,0.10874475538730621,-0.05396253243088722,0.011790481396019459,0.07576293498277664,-0.19272762537002563,0.029485207051038742,0.082692950963974,-0.1497141420841217,-0.018975872546434402,-0.023279190063476562,-0.09106842428445816,0.09414920210838318,-0.269377201795578,-0.091248519718647,0.12338248640298843,0.13608965277671814,-0.05692044645547867,0.10670872777700424,-0.018380623310804367,0.047593701630830765,-0.07289642840623856,-0.03978094086050987,-0.11582115292549133,-0.19801564514636993,-0.12879754602909088,0.006841488182544708,0.15825892984867096,0.08725489675998688,-0.05983376130461693,0.12084346264600754,-0.10004248470067978,-0.17751125991344452,-0.027931246906518936,0.03253249078989029,-0.05483022704720497,0.13266941905021667,0.06474409252405167,-0.1328202188014984,0.243440181016922,-0.0031750770285725594,-0.07991143316030502,-0.14515112340450287,0.1256682276725769,-0.07448404282331467,-0.25159573554992676,-0.1121358647942543,-0.09376674890518188,-0.10011658817529678,0.13209585845470428,0.012163752689957619,-0.00539082195609808,0.22575415670871735,-0.048257987946271896,-0.010669868439435959,0.0678323358297348,-0.09130463749170303,0.018302839249372482,-0.15228420495986938,-0.11758840084075928,0.06103609874844551,0.13590018451213837,0.0022548483684659004,0.09055747836828232,-0.03362957388162613,-0.14425881206989288,0.10731310397386551,0.17757079005241394,-0.09279001504182816,-0.06808792054653168,-0.06941543519496918,0.06512445211410522,-0.21773308515548706,-0.012950715608894825,-0.21822433173656464,0.09149017930030823,0.026717504486441612,-0.018135003745555878,-0.012144514359533787,-0.29406416416168213,-0.03243708238005638,-0.19789409637451172,0.20207740366458893,0.17093680799007416,-0.16360346972942352,-0.16284997761249542,0.03334950655698776,-0.09052558243274689,0.013774678111076355,0.08694548159837723,0.27139031887054443,0.06762325763702393,-0.21448995172977448,0.11995372921228409,0.06428079307079315,-0.07797453552484512,0.05786195024847984,-0.03322824090719223,0.22001682221889496,-0.05017426609992981,0.4369533061981201,0.08135318011045456,-0.0473010279238224,-0.24608482420444489,0.018724028021097183,0.10104106366634369,0.11820017546415329,-0.009360234253108501,-0.06494706869125366,0.07518565654754639,-0.0952405035495758,0.24681037664413452,0.1925021857023239,0.18935610353946686,0.15724919736385345,0.02715279348194599,-0.08947540074586868,0.0927782878279686,0.10950252413749695,0.04967050999403,0.12467015534639359,-0.08594488352537155,0.19061775505542755,0.10653413832187653,0.09444481879472733,0.10242117941379547,-0.08732323348522186,0.09961539506912231,0.1913614422082901,0.008046996779739857,0.031420979648828506,0.025901561602950096,-0.0521121621131897,0.29800575971603394,-0.05510621890425682,0.05853249877691269,0.1685214340686798,0.03121354803442955,-0.04634392634034157,0.09134241193532944,0.022844810038805008,0.12569282948970795,-0.018512781709432602,-0.00983498990535736,0.06484927982091904,0.007876276969909668,-0.11076963692903519,-0.08458271622657776,0.10328228771686554,-0.022610779851675034,-0.0976477637887001,-0.07257343083620071,0.02374945394694805,-0.08581910282373428,-0.1006494015455246,-0.05794581025838852,0.04633840546011925,-0.0007497782353311777,-0.04175402596592903,-0.16772259771823883,0.10611583292484283,-0.10286450386047363,-0.06422524899244308,-0.044308196753263474,0.02597017027437687,-0.023830261081457138,-0.16793757677078247,-0.03612856939435005,0.04534421116113663,-0.05873556435108185,-0.025458121672272682,-0.055671125650405884,-0.05224984511733055,0.1099613830447197,0.02140362560749054,0.08501875400543213,-0.003355346852913499,-0.029608827084302902,0.10688499361276627,-0.03786206245422363,-0.04261450096964836,-0.07675586640834808,-0.04634356126189232,0.05217882990837097,-0.010143711231648922,-0.07177753001451492,-0.04419434070587158,0.0166590865701437,0.048416219651699066,-0.009924543090164661,0.038747817277908325,-0.07589715719223022,-0.0404474101960659,-0.07219970971345901,-0.02741890773177147,-0.1140681654214859,-0.005477215629070997,0.005527610424906015,-0.1825733482837677,-0.190969318151474,-0.17199808359146118,-0.04883943870663643,-0.042887985706329346,0.003653003368526697,-0.02792230248451233,-0.1009867712855339,-0.03808232396841049,0.0505208782851696,-0.0956130176782608,-0.1604696363210678,-0.08344361186027527,0.12246142327785492,0.07961662858724594,0.006401497405022383,-0.007931314408779144,-0.12536977231502533,-0.04974453151226044,0.007796074729412794,0.024590015411376953,0.08900582790374756,-0.06832092255353928,-0.07995717972517014,-0.008775086142122746,0.07096189260482788,-0.06826998293399811,-0.032262321561574936,-0.03385996073484421,-0.018274594098329544,-0.07038438320159912,0.023915253579616547,0.08601372689008713,0.08854500204324722,-0.00014409393770620227,-0.026175333186984062,-0.16966311633586884,0.0009267984423786402,0.11531389504671097,0.11255168169736862,-0.031466882675886154,0.14089570939540863,0.00773707265034318,-0.07018645852804184,-0.06535296887159348,0.047890692949295044,0.10038460791110992,-0.05177641659975052,0.100433349609375,0.06529249995946884,0.12927882373332977,0.08743114769458771,0.046743132174015045,0.02359882742166519,0.07019077986478806,-0.11157745867967606,0.010746940039098263,0.1049322709441185,-0.036505118012428284,-0.012897271662950516,-0.04784189164638519,0.031214825809001923,-0.03335454687476158,-0.031719062477350235,-0.03491509333252907,-0.03874232620000839,-0.10514865815639496,0.12462737411260605,0.034700121730566025,-0.10607095062732697,-0.03205307200551033,-0.052061185240745544,0.003086130367591977,0.0363609753549099,-0.009130783379077911,-0.011607746593654156,0.00026430515572428703,-0.029189977794885635,0.03331568464636803,0.018158985301852226,-0.030367499217391014,0.022563304752111435,0.0004042416694574058,-0.0071302796714007854,-0.02748873271048069,0.014878316782414913,0.01568298041820526,-0.012814218178391457,-0.04073058441281319,0.06849366426467896,0.06085715442895889,-0.1522710621356964,-0.03768535703420639,0.026402566581964493,0.021991679444909096,-0.10226485133171082,0.0207403302192688,-0.030209949240088463,-0.013624662533402443,-0.09035228937864304,0.08625829219818115,0.014333552680909634,-0.10664212703704834,0.07695919275283813,-0.018816130235791206,0.027062689885497093,0.009192262776196003,0.026865310966968536,0.0008609514334239066,-0.14823101460933685,0.006845620460808277,0.010531876236200333,0.02017553150653839,-0.05103423818945885,0.03676028549671173,0.09042041003704071,-0.016999755054712296,-0.10546094179153442,-0.023462917655706406,0.0033532287925481796,0.01697581633925438,-0.020972764119505882,-0.08607050776481628,-0.03290551155805588,-0.029435578733682632,0.1250545233488083,0.06507288664579391,0.0009092029649764299,-0.04011726751923561,0.06272873282432556,0.00791349820792675,-0.09400979429483414,-0.1114528477191925,0.018408164381980896,0.0013878672616556287,-0.03229125961661339,0.04511255770921707,0.06211935728788376,0.06770344823598862,0.022916221991181374,0.061554282903671265,0.08899608254432678,0.07881465554237366,-0.030535036697983742,0.06227990612387657,0.1129918098449707,-0.07711075991392136,-0.07412949949502945,0.11813283711671829,0.050926532596349716,-0.04509540647268295,0.07544425874948502,0.0182722769677639,0.0461425818502903,-0.0039377836510539055,0.057759448885917664,-7.803633343428373e-05,-0.15492716431617737,-0.10127836465835571,-0.0744512677192688,0.02927723154425621,-0.13478711247444153,-0.05083956569433212,-0.08398102968931198,-0.054428353905677795,0.09586035460233688,0.07043084502220154,0.07389803230762482,-0.09261873364448547,0.0009634753223508596,-0.10632896423339844,-0.022483475506305695,-0.06603420525789261,-0.05810006335377693,-0.020061524584889412,0.0332832932472229,-0.04380882903933525,0.00042083358857780695,0.023049401119351387,-0.21377085149288177,-0.18626508116722107,-0.19179558753967285,-0.2546985447406769,-0.21939873695373535,-0.1822601854801178,-0.16429853439331055,-0.05031244084239006,-0.05151274800300598,0.024717610329389572,-0.04025203734636307,-0.16928496956825256,-0.2327432930469513,-0.18983520567417145,-0.15647777915000916,-0.16548846662044525,-0.16054874658584595,-0.2429635375738144,-0.09112748503684998,-0.09982097893953323,-0.0059630959294736385,-0.11234071850776672,-0.13768331706523895,-0.13998174667358398,-0.10450809448957443,-0.1649320423603058,-0.23292550444602966,-0.2058476209640503,-0.1249743103981018,-0.17671459913253784,-0.11130016297101974,-0.028610633686184883,0.0726059079170227,-0.1871279776096344,-0.12211408466100693,-0.16543012857437134,-0.17659533023834229,-0.22865743935108185,-0.17957252264022827,-0.12678872048854828,-0.10822292417287827,-0.04846550524234772,0.08505803346633911,-0.08451040089130402,-0.18509234488010406,-0.06279892474412918,-0.20726904273033142,-0.19704702496528625,-0.15877503156661987,-0.23063550889492035,-0.08783496171236038,-0.22091631591320038,-0.024407710880041122,0.06250341981649399,0.02841891162097454,-0.17344917356967926,-0.20989865064620972,-0.12353867292404175,-0.3155818283557892,-0.3048834502696991,-0.19400103390216827,-0.15137237310409546,-0.12505152821540833,0.00038059824146330357,-0.08404261618852615,-0.001011031330563128,-0.22007541358470917,-0.09859201312065125,-0.1322433352470398,-0.2464078962802887,-0.26636043190956116,-0.04428064450621605,-0.0836697444319725,-0.11415090411901474,-0.10595331341028214,0.028349921107292175,0.03930728882551193,-0.09904858469963074,-0.10389222949743271,-0.05568333715200424,-0.12862689793109894,-0.1650492399930954,-0.1366608887910843,-0.03809354081749916,0.019802292808890343,-0.020338892936706543,0.11579718440771103,0.07425714284181595,-0.22220242023468018,-0.17955763638019562,0.04042051360011101,-0.1601589173078537,-0.21583262085914612,-0.14242227375507355,-0.1172143965959549,0.029031414538621902,0.05941278487443924,-0.0927438959479332,-0.072675421833992,-0.10283274203538895,0.033037856221199036,0.20790234208106995,0.22580945491790771,0.17290139198303223,0.16706936061382294,-0.012069866061210632,0.0028847185894846916,0.01704690046608448,0.01976587250828743,0.06918109953403473,0.058716196566820145,0.2197454422712326,0.20851071178913116,0.2531851828098297,0.19776786863803864,0.20109662413597107,0.0556047149002552,0.11781620979309082,0.04841671884059906,-0.10867828130722046,0.005378036294132471,0.0649014413356781,0.14672395586967468,0.06089264526963234,0.09849163889884949,0.07899966090917587,0.08761785924434662,0.003467276692390442,0.0031587150879204273,-0.07991360872983932,-0.003770051524043083,0.030012857168912888,-0.02243208698928356,0.12652207911014557,0.08535315841436386,0.1971236914396286,0.1685352772474289,0.09039527922868729,0.0557619109749794,0.07048505544662476,0.02387779764831066,-0.03012172132730484,-0.06979595124721527,0.0173510555177927,0.12647736072540283,0.15626852214336395,0.18995484709739685,0.15878376364707947,0.11156857758760452,0.11652307212352753,0.01897650957107544,-0.05540985241532326,-0.005074320361018181,0.07518903911113739,-0.048932552337646484,0.08322802931070328,0.14279474318027496,0.23601599037647247,0.148710235953331,0.16496345400810242,0.09534728527069092,0.12895649671554565,-0.0020285770297050476,-0.030648671090602875,0.08369801193475723,-0.04069674760103226,0.14467865228652954,0.2190612554550171,0.1841447800397873,0.1466352343559265,0.16455546021461487,0.11705337464809418,-0.04239100217819214,0.06759059429168701,0.01470956951379776,0.0638103261590004,0.08010991662740707,0.12652717530727386,0.20583808422088623,0.180118590593338,0.13260065019130707,0.10365309566259384,0.10348375141620636,0.0387895368039608,0.004330978728830814,-0.059624746441841125,0.0880262479186058,-0.03924188390374184,0.15674656629562378,0.20024536550045013,0.20833994448184967,0.0669037401676178,0.21692116558551788,0.13649554550647736,0.058824680745601654,0.017023790627717972,0.034466397017240524,0.06422572582960129,-0.005704399198293686,0.02791808359324932,0.1735125482082367,0.1657278686761856,0.10212524980306625,0.11882686614990234,0.1679806411266327,0.06039154902100563,-0.01564435288310051,0.08259883522987366,0.04377562180161476,-0.03610710799694061,0.008490856736898422,0.21996936202049255,0.1321733295917511,0.03216080740094185,0.0628938153386116,0.06276782602071762,-0.005058916285634041,-0.04872213676571846,-0.23107685148715973,0.024434395134449005,-0.059256792068481445,-0.3044506013393402,-0.42750832438468933,-0.2437281310558319,-0.1882980912923813,-0.2126011997461319,-0.011398600414395332,-0.01998540200293064,-0.051948029547929764,-0.21800768375396729,0.0693027600646019,0.013373724184930325,-0.22363543510437012,0.010289613157510757,0.04419233277440071,0.03261784836649895,-0.07078570872545242,0.0742407813668251,-0.031812891364097595,-0.017759226262569427,0.017963793128728867,-0.09092994779348373,-0.30262866616249084,-0.1382857710123062,-0.0733100175857544,0.1299903392791748,-0.1118764728307724,-0.006122586317360401,-0.018127799034118652,-0.1188795194029808,-0.12347100675106049,0.007105676457285881,-0.16658630967140198,-0.08616256713867188,0.07172118872404099,0.22295618057250977,-0.00916269887238741,-0.06387323141098022,-0.09196284413337708,-0.05474207550287247,-0.04469006508588791,-0.1206483244895935,-0.044586148113012314,0.050497058779001236,-0.04357416182756424,0.05912218987941742,0.06259678304195404,-0.16415585577487946,-0.22144289314746857,0.12465547770261765,0.05421864613890648,-0.026596475392580032,-0.09503254294395447,-0.028079211711883545,-0.008927421644330025,0.15449541807174683,0.16573205590248108,0.11511073261499405,-0.0256962850689888,0.08125688135623932,-0.03101685456931591,0.0257454514503479,-0.02805415913462639,0.12415438145399094,-0.02554561011493206,0.04786348715424538,0.12314984202384949,-0.07558320462703705,0.17855167388916016,0.09722593426704407,-0.057411838322877884,0.049214694648981094,0.0664539635181427,0.03347817808389664,0.04749801382422447,0.1313183307647705,-0.005418969783931971,0.16062141954898834,0.10369515419006348,0.21343767642974854,0.20663262903690338,-0.02057778462767601,-0.04884529113769531,0.21772222220897675,0.1666407436132431,-0.04037071391940117,0.02250942401587963,0.015568144619464874,0.011102580465376377,0.008359460160136223,0.02153036929666996,-0.007197633385658264,-0.16980643570423126,0.03221536800265312,0.026492320001125336,-0.0028411690145730972,0.03845186159014702,0.16598732769489288,0.0989890843629837,0.017365366220474243,0.017597317695617676,0.08847243338823318,0.058714572340250015,-0.02286428026854992,0.058451902121305466,0.08299671113491058,0.010375015437602997,-0.02370740845799446,0.17558836936950684,0.10365386307239532,0.24609404802322388,0.06514491885900497,0.22372843325138092,0.25319188833236694,-0.005465483758598566,-0.014650319702923298,0.02972705103456974,0.0795276015996933,0.05529157072305679,-0.06916312128305435,0.23701506853103638,0.10798895359039307,-0.2060943990945816,-0.27743178606033325,0.03662022948265076,0.09219565242528915,-0.08893422037363052,0.15947715938091278,0.061949823051691055,0.0058282725512981415,-0.13010065257549286,0.16266405582427979,0.10774581879377365,-0.16826917231082916,0.21276700496673584,0.32385683059692383,0.22240544855594635,0.05011093616485596,0.11571551114320755,0.046261973679065704,-0.04816979914903641,0.09546259045600891,-0.0835038349032402,-0.2799673080444336,-0.01805601269006729,-0.03852441534399986,0.22161337733268738,0.05069843679666519,-0.021417176350951195,0.04835706204175949,-0.07156400382518768,-0.1913738250732422,-0.039689432829618454,-0.2194281667470932,-0.037355780601501465,0.1871550977230072,0.2585223317146301,0.18642711639404297,0.012119054794311523,-0.1321430206298828,-0.08464719355106354,-0.09846244007349014,-0.22691182792186737,-0.05166497081518173,-0.055913910269737244,-0.057576365768909454,0.01685861498117447,0.08049747347831726,-0.09798204153776169,-0.19632934033870697,0.0509212501347065,-0.01025853119790554,-0.06063612550497055,-0.2933436632156372,-0.11730318516492844,-0.0703001618385315,0.13732239603996277,0.05648494139313698,0.16337056457996368,-0.006454692222177982,0.11750781536102295,-0.1277574598789215,-0.1520216315984726,-0.11517556756734848,-0.07113532721996307,-0.03276200219988823,-0.01675487495958805,0.08250658959150314,-0.20227867364883423,0.22297216951847076,0.0003606354584917426,-0.12128102779388428,-0.0027202144265174866,-0.08545636385679245,-0.1496407836675644,-0.12785495817661285,0.1080392524600029,0.02073361724615097,0.07381230592727661,-0.008492734283208847,0.22040998935699463,0.10278227180242538,-0.12761864066123962,-0.1866997480392456,0.13731026649475098,0.04413792863488197,-0.16925586760044098,-0.06692729890346527,0.02102719061076641,0.019927633926272392,-0.04352729395031929,-0.011525637470185757,0.03644414618611336,-0.2082994133234024,-0.02571394294500351,-0.09960772097110748,-0.19099895656108856,-0.0831274762749672,0.141985222697258,-0.050681695342063904,-0.11676415801048279,-0.10155770182609558,0.1031634658575058,0.07249860465526581,-0.0016560123767703772,-0.0174604132771492,-0.06620823591947556,-0.010377117432653904,-0.06052567809820175,0.022840218618512154,-0.06557494401931763,0.16384455561637878,-0.09579958021640778,0.13405972719192505,0.14500413835048676,-0.05768420919775963,-0.15871430933475494,-0.08532345294952393,0.03178234398365021,-0.13002777099609375,-0.29276999831199646,0.019404953345656395,-0.13530734181404114,-0.16061626374721527,-0.3430119752883911,-0.22336512804031372,-0.27204498648643494,-0.165599524974823,-0.08508037775754929,0.018442632630467415,-0.06466954201459885,-0.3430023789405823,0.03737172111868858,0.04306148365139961,-0.16315467655658722,0.04186490923166275,-0.041778236627578735,-0.07487239688634872,-0.008550853468477726,0.00399593822658062,0.027843967080116272,0.030251745134592056,-0.13182063400745392,-0.16937623918056488,-0.15876665711402893,-0.0863003134727478,-0.17069290578365326,0.018580486997961998,-0.0636964961886406,0.006845911033451557,0.07693461328744888,0.04482772946357727,0.016466358676552773,-0.18555095791816711,-0.16328594088554382,0.07406491041183472,0.2070872187614441,0.18228358030319214,0.012585204094648361,-0.04577411338686943,0.017035439610481262,0.1391005963087082,0.046339549124240875,-0.09922054409980774,-0.07130144536495209,-0.08350122720003128,-0.09159140288829803,0.04136866331100464,0.02281680330634117,-0.13656434416770935,-0.06214555352926254,0.21496279537677765,0.14944569766521454,0.005873213522136211,-0.17343509197235107,-0.08668382465839386,-0.04477877542376518,0.09214314073324203,0.033743664622306824,-0.010166366584599018,-0.005751647520810366,0.17677882313728333,0.19772528111934662,0.16000230610370636,0.14436858892440796,0.12737040221691132,-0.11114238202571869,0.08839672058820724,0.07362053543329239,-0.09021507948637009,0.051590315997600555,-0.01934649981558323,-0.07820548862218857,0.08675982058048248,0.100721076130867,0.08000310510396957,0.1480923742055893,0.07961293309926987,0.006783120799809694,-0.0594332218170166,-0.07417266815900803,0.14153069257736206,0.14038872718811035,-0.12426891922950745,0.051928430795669556,0.25329241156578064,0.1961051970720291,0.0526852160692215,-0.016070814803242683,0.015387346968054771,-0.002140497090294957,-0.025174828246235847,-0.021542660892009735,0.01669253222644329,-0.1948634684085846,0.08612777292728424,-0.017577413469552994,0.02793380245566368,0.14687369763851166,0.022343698889017105,-0.0024770621675997972,-0.03348911926150322,0.014981231652200222,0.05015087500214577,0.09962616860866547,0.1215803399682045,0.16205352544784546,0.16419175267219543,0.015914184972643852,0.09829436242580414,-0.07719343900680542,-0.051515933126211166,0.20541994273662567,0.07309985160827637,0.1382797211408615,0.2519194483757019,0.10661140829324722,0.08797172456979752,0.11482296139001846,0.23182930052280426,0.12822644412517548,0.14470596611499786,0.08265069872140884,-0.04746866971254349,0.03170553222298622,-0.02981867641210556,-0.04173818975687027,-0.2652374505996704,0.0724596232175827,-0.11046485602855682,-0.13506193459033966,-0.024576662108302116,0.20422886312007904,0.07124031335115433,0.03876807168126106,0.020230764523148537,-0.010363011620938778,-0.11479151248931885,0.03323479741811752,-0.012288272380828857,-0.1479129195213318,-0.17781007289886475,-0.027501164004206657,0.10620652884244919,-0.0071152737364172935,-0.06124534457921982,-0.11319052428007126,0.12127640098333359,-0.18257427215576172,0.036666806787252426,0.01859281212091446,0.16852954030036926,-0.02268311008810997,-0.09759300947189331,0.06524617224931717,0.16164277493953705,-0.018024954944849014,0.0830448567867279,0.004912601318210363,0.051672548055648804,0.16085489094257355,-0.044356416910886765,0.12095333635807037,0.03021114319562912,-0.1589745581150055,0.13318002223968506,0.054826520383358,-0.08746180683374405,-0.07941238582134247,0.07984007894992828,-0.1001209244132042,0.018774671480059624,0.003741595661267638,0.04375266656279564,0.03146248683333397,0.08422107249498367,-0.003199636936187744,-0.04884441941976547,0.00769976619631052,0.06107638031244278,-0.03400944918394089,-0.007584261242300272,-0.041513893753290176,0.04356086626648903,0.09091538190841675,0.02258438616991043,-0.09372695535421371,0.05691540613770485,-0.09683392196893692,-0.008809126913547516,0.018219677731394768,0.01937834732234478,-0.12267082184553146,0.08068802952766418,0.060162488371133804,0.08241891860961914,-0.014936160296201706,0.15939109027385712,0.015050649642944336,0.09009277075529099,-0.05085056647658348,-0.05279480665922165,-0.17592370510101318,-0.11309239268302917,0.10873270779848099,-0.04032932594418526,-0.0839397981762886,-0.024188395589590073,0.18990957736968994,-0.06004757806658745,0.007229221984744072,-0.00032326008658856153,-0.16246558725833893,-0.0029636858962476254,-0.03428816422820091,0.06981156021356583,0.1310189664363861,-0.0438084676861763,0.1090671718120575,0.12637899816036224,0.05678614601492882,0.15024469792842865,-0.03306381404399872,0.041897427290678024,-0.1413804292678833,-0.1712033748626709,-0.028189856559038162,0.053685810416936874,0.11057984828948975,0.07776372134685516,0.08696045726537704,0.1125461533665657,0.005265546031296253,0.09417375922203064,-0.16370268166065216,0.03861643001437187,0.01000706572085619,-0.09805839508771896,0.16065950691699982,0.09909182041883469,-0.005573781207203865,0.20446769893169403,0.06524921953678131,0.1386912316083908,-0.028196344152092934,-0.014455527067184448,-0.019831746816635132,-0.014123472385108471,-0.2006331831216812,0.09205790609121323,-0.16679631173610687,-0.179899200797081,-0.01890374720096588,0.11402084678411484,-0.005277607124298811,0.1307370364665985,0.02537757344543934,0.01020777877420187,-0.140749990940094,-0.07576169073581696,0.0066918074153363705,-0.210429847240448,-0.22824406623840332,-0.05693899095058441,0.013385328464210033,-0.0524897575378418,-0.06036630645394325,-0.04281770810484886,0.11990588158369064,-0.183892622590065,0.13123473525047302,0.07605060935020447,0.13056962192058563,0.007155471481382847,-0.03348204866051674,0.039329204708337784,0.06908059865236282,-0.06269332021474838,0.056057076901197433,0.024667512625455856,0.053624287247657776,0.12619246542453766,-0.08145041018724442,0.09490404278039932,0.05862898379564285,-0.19393114745616913,0.14179393649101257,-0.08273962140083313,-0.018065717071294785,0.00823240540921688,0.13754603266716003,-0.0932619720697403,0.026554452255368233,-0.10966987907886505,0.07037574052810669,-0.004559310153126717,0.03187556937336922,0.013093593530356884,-0.008379955776035786,0.024531815201044083,0.11599590629339218,0.04411415383219719,0.03236144408583641,-0.06782566756010056,0.05394653603434563,0.10037782043218613,0.028566669672727585,-0.13844826817512512,0.09515675157308578,-0.1028672605752945,0.023833289742469788,0.11643537878990173,0.16202065348625183,-0.02067325823009014,0.15088702738285065,0.055879145860672,0.1261206567287445,0.046858254820108414,0.08868646621704102,-0.04334345459938049,0.07041279226541519,-0.06471288204193115,0.04946960508823395,-0.1226121261715889,-0.04034099355340004,0.0071762423031032085,-0.055726926773786545,-0.07362581044435501,-0.1452166885137558,0.1326281875371933,-0.16179920732975006,-0.022127622738480568,0.029138820245862007,-0.11148533225059509,0.011086047627031803,-0.11164537072181702,-0.01043621264398098,0.09696589410305023,-0.1276049166917801,0.008145281113684177,0.06018168851733208,-0.040294498205184937,0.10842454433441162,-0.05044633150100708,-0.04072794318199158,-0.17465481162071228,-0.14688411355018616,-0.02849590964615345,-0.05112537369132042,0.10387737303972244,0.09543734043836594,0.04799562692642212,-0.03371548652648926,-0.17332570254802704,0.05263654515147209,-0.14222849905490875,0.0409206822514534,0.09096300601959229,-0.07850269228219986,0.06306063383817673,-0.09730715304613113,-0.04330556467175484,0.07223496586084366,0.1979178786277771,0.08400104939937592,0.12061110138893127,0.1058259978890419,-0.13602545857429504,-0.0751931294798851,-0.16124017536640167,0.0530027411878109,-0.21139614284038544,-0.24429962038993835,-0.17431505024433136,0.26657190918922424,0.028936149552464485,0.102676160633564,-0.028205903246998787,0.04726492986083031,-0.19130143523216248,0.11107665300369263,0.10293390601873398,-0.12997017800807953,-0.2276616245508194,-0.34174904227256775,0.14555476605892181,-0.009667068719863892,-0.04735197499394417,0.03774707019329071,0.23853738605976105,-0.2301878184080124,0.1984255015850067,0.2217584103345871,0.2823922634124756,-0.15382762253284454,-0.27737781405448914,0.2596931457519531,0.10901077836751938,0.09715620428323746,0.1882321536540985,0.1913221925497055,0.15809683501720428,0.19384600222110748,0.045757047832012177,0.1691349893808365,-0.06489193439483643,-0.24035364389419556,0.30675575137138367,0.04639584943652153,0.058570850640535355,-0.015529489144682884,0.2098100334405899,0.0538579486310482,0.14640815556049347,0.03605765104293823,0.08967413008213043,-0.03731632977724075,0.04444732889533043,0.1746569126844406,-0.022871078923344612,0.21221531927585602,0.12860168516635895,0.11956188827753067,0.1701715737581253,-0.07909788936376572,0.04741311073303223,0.2051561325788498,0.010941929183900356,-0.1658143401145935,0.2561134099960327,-0.0164400115609169,0.10510831326246262,0.23124708235263824,0.3549540638923645,0.11383989453315735,0.14974066615104675,0.1631178855895996,0.2133016735315323,0.23395200073719025,0.2057396024465561,0.11395403742790222,0.2049792855978012,0.0605868399143219,0.06445587426424026,0.01770586334168911,0.16075891256332397,0.11132866889238358,-0.053154829889535904,0.09328067302703857,0.0750323012471199,0.22065123915672302,-0.13214603066444397,-0.08500603586435318,0.251809298992157,-0.08331108093261719,0.2281326800584793,0.0809788778424263,0.10129956901073456,0.1744977831840515,-0.06536389142274857,0.19841887056827545,0.11205312609672546,0.08836576342582703,0.1694778949022293,0.1364157348871231,0.21638594567775726,0.10797050595283508,-0.13768863677978516,-0.044773973524570465,0.09457430988550186,0.20230633020401,0.15060004591941833,0.11093048006296158,0.21204376220703125,-0.0360306054353714,0.1846560835838318,0.07045720517635345,0.2843291759490967,0.11440073698759079,-0.02082805708050728,0.18851934373378754,0.1515120565891266,0.08652782440185547,0.25468140840530396,0.08984894305467606,0.03708907589316368,-0.06426290422677994,0.2015155702829361,0.14453370869159698,0.07999461144208908,0.08887431025505066,0.005176064092665911,0.025464603677392006,0.10407809168100357,0.11077693849802017,0.04583798721432686,-0.05010213330388069,-0.20256491005420685,-0.02066696062684059,-0.18430732190608978,0.024116814136505127,0.1766975075006485,-0.0554906465113163,-0.030461404472589493,-0.03996860608458519,0.05694742500782013,0.02110898122191429,-0.0646977424621582,-0.06655184924602509,-0.14866721630096436,-0.022313455119729042,-0.04996123164892197,0.04010418802499771,-0.01953471079468727,0.05225912109017372,0.029790187254548073,-0.012630093842744827,-0.004917949438095093,-0.09994112700223923,-0.0946410745382309,-0.14305011928081512,-0.1438726931810379,-0.10588397830724716,-0.23310306668281555,-0.2089865654706955,-0.13593369722366333,-0.15341717004776,-0.1515442579984665,0.08582685142755508,0.1130916178226471,0.14535067975521088,0.014516878873109818,-0.13792569935321808,-0.03148415684700012,-0.05379819497466087,-0.05401328578591347,-0.15301111340522766,-0.05889667570590973,-0.034105587750673294,0.15897701680660248,0.15205538272857666,0.13808584213256836,0.1803760528564453,0.052253931760787964,0.03659553825855255,0.03802685812115669,-0.025104859843850136,0.0681479349732399,-0.04992078244686127,0.03257066756486893,0.09198471158742905,0.18955925107002258,0.14894914627075195,0.18529771268367767,0.3940727710723877,0.3060639500617981,0.14195919036865234,-0.010067427530884743,0.09124787896871567,0.20819473266601562,0.2942403256893158,0.046995289623737335,0.01509899366647005,-0.047466885298490524,0.15286174416542053,0.12495170533657074,0.13350757956504822,-0.016659924760460854,0.19228647649288177,0.29326698184013367,0.2632080912590027,0.03044700436294079,0.06427280604839325,0.00023796973982825875,0.02915377914905548,-0.03977401554584503,0.026166748255491257,0.06527222692966461,-0.05238831415772438,0.09579150378704071,0.08568864315748215,-0.016775332391262054,-0.01954018883407116,0.2680279314517975,0.0445910319685936,-0.040664929896593094,0.021932503208518028,0.027844088152050972,0.029980551451444626,0.09468647092580795,0.09369830787181854,0.11909175664186478,0.13414768874645233,-0.013315447606146336,0.07654008269309998,-0.06839312613010406,-0.09871607273817062,-0.17036202549934387,-0.010028141550719738,-0.06743529438972473,-0.16183793544769287,-0.2809111475944519,-0.21937641501426697,-0.32593682408332825,-0.12270954996347427,-0.016171613708138466,-0.11876130104064941,-0.26972347497940063,-0.054363101720809937,-0.0631183534860611,-0.10540428012609482,-0.10704448074102402,-0.1272037774324417,-0.03430750593543053,-0.0349145270884037,0.07238733023405075,-0.04885590076446533,-0.12557588517665863,-0.3020123243331909,-0.09373789280653,-0.30529361963272095,-0.16497531533241272,-0.002788058714941144,-0.06164727732539177,-0.15827234089374542,-0.05940382182598114,-0.03421095386147499,-0.1359618753194809,-0.07680647075176239,-0.19931556284427643,-0.13244514167308807,-0.15493039786815643,-0.26855307817459106,-0.07122547924518585,-0.07230056822299957,-0.06671453267335892,-0.10868091881275177,-0.007761151064187288,-0.17792412638664246,-0.13200245797634125,-0.16343866288661957,-0.11486098915338516,-0.21357488632202148,-0.17235317826271057,-0.31034427881240845,-0.2223234325647354,-0.07691406458616257,-0.17928507924079895,-0.15728779137134552,-0.09612875431776047,0.04340938851237297,0.15033575892448425,0.024579893797636032,-0.07515460252761841,0.09209022670984268,0.054001398384571075,0.026082845404744148,-0.10903411358594894,0.008762664161622524,-0.13841575384140015,0.0369376577436924,0.08120742440223694,0.1995343118906021,0.291957825422287,0.1552373766899109,0.12708629667758942,0.05387559533119202,0.11286503076553345,0.08830995857715607,-0.13455520570278168,-0.07481858879327774,0.15460771322250366,0.17523443698883057,0.19177590310573578,0.3359581232070923,0.40216922760009766,0.4220888018608093,0.2925160229206085,0.07654363662004471,0.040182050317525864,0.11534631997346878,0.22150664031505585,-0.0026849801652133465,0.05584872514009476,0.09841420501470566,0.2677399516105652,0.2146298587322235,0.312511682510376,0.1437879055738449,0.31743693351745605,0.3314777910709381,0.18934674561023712,0.07255899161100388,-0.0026929830200970173,0.07154161483049393,0.008925535716116428,0.11609827727079391,0.08252665400505066,0.22941820323467255,0.22004656493663788,0.2412024587392807,0.09062045812606812,-0.022044679149985313,-0.03977188840508461,0.052052270621061325,-0.024182450026273727,0.03252103179693222,0.16664987802505493,0.06950356811285019,-0.011812310665845871,0.153434619307518,0.16926856338977814,0.14340735971927643,0.13380633294582367,0.026094872504472733,-0.17948584258556366,-0.231491357088089,-0.015018213540315628,-0.028734296560287476,-0.07645444571971893,-0.0788559541106224,-0.07027293741703033,-0.04569721221923828,-0.06787087768316269,-0.12387065589427948,-0.16049987077713013,0.054042454808950424,0.18356046080589294,0.03556062653660774,0.142568439245224,0.08565925806760788,0.008624215610325336,0.0014997137477621436,0.07252838462591171,-0.00257931393571198,-0.12673428654670715,-0.08537159115076065,-0.07260782271623611,-0.04957261681556702,0.049805961549282074,0.1347626894712448,0.06672167032957077,-0.014577683061361313,0.1011413037776947,0.05773492902517319,-0.029873400926589966,-0.09540802240371704,-0.05865084007382393,-0.019282665103673935,0.11112219095230103,0.1610335409641266,0.1711948961019516,0.12009303271770477,0.11959756910800934,0.0812029242515564,0.10401804000139236,0.0016443663043901324,-0.07775615155696869,0.0008340194472111762,-0.19145502150058746,0.006210153456777334,0.025449514389038086,0.02865232154726982,-0.008963881060481071,0.0725976899266243,-0.03685561195015907,-0.032405268400907516,-0.005053102970123291,-0.104160837829113,-0.14510631561279297,-0.060768455266952515,-0.0705050602555275,-0.014120242558419704,-0.14772190153598785,-0.009701636619865894,0.11731825768947601,0.12674276530742645,0.009650259278714657,-0.01207613106817007,0.05377919599413872,-0.020159458741545677,-0.05456441268324852,-0.09016347676515579,-0.09704610705375671,-0.007662409450858831,-0.10673323273658752,-0.07760792970657349,-0.07617247849702835,-0.014626819640398026,0.060120876878499985,0.018127821385860443,0.011893203482031822,0.04544296860694885,-0.10008261352777481,-0.1021239310503006,-0.014498605392873287,0.05698668211698532,-0.03154719993472099,-0.06470439583063126,-0.034394461661577225,0.05689236894249916,0.16449615359306335,0.1637367159128189,-0.031326498836278915,-0.043657854199409485,0.05076182261109352,-0.08015959709882736,-0.11945177614688873,-0.08196797221899033,-0.0905315950512886,0.023861641064286232,0.07554941624403,0.05483921244740486,0.054555803537368774,-0.07955275475978851,0.0028810619842261076,0.07737527042627335,-0.025948215276002884,-0.07663280516862869,-0.1576915830373764,-0.15584877133369446,-0.0560150146484375,-0.00455970736220479,-0.13532717525959015,0.02075805515050888,-0.03915856406092644,0.015058468095958233,0.00037190516013652086,0.05961241573095322,-0.009385577403008938,-0.1042846143245697,-0.0976434126496315,0.014957099221646786,-0.009777270257472992,-0.00043731852201744914,-0.020537691190838814,-0.010634729638695717,-0.031728316098451614,0.10714877396821976,0.019935809075832367,0.05012431740760803,-0.0031194835901260376,-0.11090106517076492,-0.09690624475479126,-0.09498082846403122,-0.02659124694764614,-0.0067900605499744415,0.06415046751499176,-0.05885520577430725,0.06975001096725464,0.07500401139259338,-0.06839797645807266,0.08707909286022186,0.11447332054376602,0.027782725170254707,0.062114082276821136,0.02811633236706257,0.0818726047873497,0.03867609426379204,0.12513835728168488,0.14721526205539703,0.14441105723381042,-0.030070126056671143,0.01567661017179489,0.05331144481897354,0.07106965035200119,0.10159026086330414,0.027439014986157417,0.13216184079647064,-0.025194218382239342,0.11488019675016403,0.20185168087482452,0.05203022062778473,-0.11442791670560837,-0.016477955505251884,-0.0010082301450893283,0.06773053854703903,-0.15793761610984802,0.036304306238889694,0.02011597715318203,-0.04022682085633278,0.10061021149158478,0.17310664057731628,-0.06745902448892593,0.027411626651883125,0.1587122231721878,0.12013238668441772,0.08880934864282608,-0.2289712280035019,0.05231454595923424,0.10505884140729904,0.20779544115066528,0.11339535564184189,0.14269569516181946,-0.09643728286027908,0.07800231128931046,0.11654021590948105,0.16034573316574097,0.3379132151603699,-0.1999707669019699,0.1328117847442627,0.027015313506126404,-0.13765433430671692,0.13276904821395874,0.12145665287971497,0.024706926196813583,0.008575336076319218,0.09457559138536453,0.12685848772525787,0.051478855311870575,-0.04892151802778244,0.117671899497509,0.09956611692905426,-0.03339190408587456,0.12965266406536102,0.021432220935821533,0.22659964859485626,0.13439668715000153,0.13617809116840363,0.0596776083111763,0.1547430008649826,0.04302968829870224,-0.006186168175190687,0.08111544698476791,0.15498992800712585,0.27472904324531555,0.12384040653705597,0.01289928238838911,0.06980999559164047,0.18845801055431366,0.1506289541721344,0.0634683296084404,0.07441220432519913,-0.11506646126508713,0.17851465940475464,0.1470392793416977,0.21945826709270477,0.05691961199045181,0.03976398706436157,0.22404977679252625,0.2073347419500351,0.18533387780189514,0.17151758074760437,0.06437568366527557,-0.1090538501739502,0.10939720273017883,0.1443265974521637,0.042413465678691864,0.01425536535680294,0.1610613763332367,-0.0064897178672254086,0.10658078640699387,0.07576310634613037,-0.007478771265596151,0.1988704651594162,-0.01872006244957447,0.19909808039665222,0.1493818610906601,-0.02700939029455185,0.17105598747730255,0.027912018820643425,-0.06937035173177719,0.24782107770442963,0.06714611500501633,-0.007915753871202469,0.01861148700118065,0.035720400512218475,0.10638489574193954,-0.023991921916604042,-0.13884225487709045,0.017374955117702484,-0.0394592210650444,-0.19784384965896606,0.02597186155617237,-0.009863154962658882,-0.15403303503990173,-0.05626509711146355,-0.15524958074092865,-0.023006746545433998,-0.1282443255186081,-0.11482679843902588,-0.08202528953552246,-0.07409299165010452,-0.17011643946170807,-0.024241095408797264,-0.042816393077373505,-0.060649652034044266,-0.00334923411719501,-0.16689005494117737,-0.1556234359741211,-0.1523759365081787,-0.1398480087518692,-0.0420430488884449,-0.12081463634967804,-0.2786456048488617,-0.044846322387456894,-0.036300498992204666,-0.08986249566078186,-0.19090035557746887,-0.14154647290706635,-0.13448092341423035,-0.23570486903190613,-0.11218078434467316,-0.05429280549287796,-0.13990864157676697,-0.004657363053411245,-0.06666601449251175,-0.14250686764717102,-0.0886317640542984,-0.3060205280780792,0.004772026091814041,-0.13734404742717743,0.04062566161155701,-0.10535002499818802,-0.1382139027118683,-0.3561430871486664,-0.029045572504401207,-0.11046861112117767,-0.13684067130088806,0.11785811930894852,-0.4667598307132721,0.07142133265733719,-0.11551298201084137,-0.11556290090084076,0.01668149046599865,-0.12877553701400757,-0.15974070131778717,-0.0257917121052742,-0.09195974469184875,-0.10276925563812256,-0.2263900190591812,-0.2695253789424896,-0.036761537194252014,-0.06225065886974335,-0.03111966885626316,-0.026821987703442574,-0.1586085855960846,0.09057288616895676,-0.055353887379169464,0.03105722740292549,-0.17359401285648346,-0.1186777651309967,-0.2571168839931488,-0.1271730363368988,-0.020389096811413765,-0.07012411952018738,0.04865686967968941,-0.09752649813890457,-0.17478783428668976,-0.16564403474330902,-0.022698018699884415,-0.17346245050430298,-0.21516424417495728,-0.11325976252555847,-0.3566376566886902,0.034580688923597336,-0.06707248836755753,0.068396657705307,-0.09737532585859299,-0.17266131937503815,0.034195590764284134,-0.05393175035715103,-0.10598712414503098,-0.09368867427110672,-0.03265254199504852,-0.23063209652900696,-0.019832374528050423,0.040026985108852386,-0.08313404023647308,-0.0836387351155281,-0.04393251612782478,-0.09940524399280548,-0.00709341699257493,-0.1747899055480957,-0.20243574678897858,0.034002769738435745,-0.2801562547683716,0.1314036250114441,0.03892352804541588,-0.1685974895954132,0.05995529145002365,-0.12119251489639282,-0.1090506985783577,0.19516253471374512,-0.10087788105010986,-0.17370374500751495,-0.13055193424224854,-0.19110533595085144,-0.0210135318338871,0.16064777970314026,-0.03289444372057915,-0.034635260701179504,0.08491997420787811,-0.14948956668376923,0.005069964099675417,0.01481472048908472,-0.1440643072128296,0.06704870611429214,-0.01431311760097742,-0.003531038062646985,0.15769553184509277,0.11153171956539154,0.08626741915941238,0.05654222145676613,0.003508663037791848,0.19104263186454773,0.07388117909431458,-0.001403569825924933,0.038515854626894,0.014559833332896233,-0.035567499697208405,0.10845648497343063,0.0437258817255497,0.04121699184179306,-0.005165211856365204,-0.06277386099100113,0.07157906889915466,-0.004686653148382902,0.004559473600238562,0.011582841165363789,0.04335665702819824,-0.004127091262489557,0.0376814641058445,-0.007866832427680492,-0.07654453068971634,-0.037406522780656815,0.10919739305973053,0.07663317769765854,-0.06525678187608719,-0.07127309590578079,-0.05559912696480751,0.13352183997631073,-0.15607242286205292,0.10944228619337082,-0.010803732089698315,0.0241551473736763,-0.1571207344532013,0.1491391658782959,-0.00697681400924921,-0.015584646724164486,0.23471246659755707,-0.16849938035011292,0.08902726322412491,-0.2139832079410553,-0.031977392733097076,0.0076745012775063515,-0.04653468355536461,-0.027626601979136467,0.057671863585710526,0.016143973916769028,-0.015080220997333527,-0.11762190610170364,-0.0704445168375969,-0.022436974570155144,-0.04474005103111267,0.0199970044195652,-0.05996445193886757,-0.06760087609291077,0.03265402838587761,-0.01409245003014803,0.0828518494963646,-0.08323804289102554,0.036759939044713974,-0.040653131902217865,-0.01927511766552925,-0.08345538377761841,-0.052258290350437164,-0.010526912286877632,-0.20027512311935425,-0.21128904819488525,-0.08865359425544739,0.04017140716314316,-0.12576156854629517,0.0416497103869915,0.05627315118908882,-0.10769160091876984,-0.04607442393898964,-0.04990857094526291,0.055867187678813934,-0.10007201880216599,-0.13152582943439484,0.021568797528743744,0.03264099732041359,-0.15652970969676971,0.06592585891485214,0.009205647744238377,-0.11081275343894958,-0.021690132096409798,0.18987461924552917,0.11681464314460754,-0.06100912019610405,-0.01721266098320484,-0.03496742621064186,-0.029355444014072418,-0.1283634901046753,-0.08017092943191528,0.07578786462545395,-0.13801395893096924,0.027433967217803,0.020534731447696686,0.01925160549581051,0.008997355587780476,-0.09488191455602646,-0.039975207298994064,0.2623002827167511,-0.028306975960731506,-0.10671153664588928,-0.0792667493224144,-0.008314725011587143,0.01705487258732319,-0.005988744553178549,-0.1330467313528061,-0.21981023252010345,-0.166998028755188,-0.03378814831376076,-0.05756208300590515,-0.20878808200359344,-0.1567903459072113,-0.07317352294921875,-0.09228063374757767,-0.10959704220294952,-0.11944738030433655,-0.02034997195005417,-0.21936599910259247,-0.11360817402601242,-0.19501014053821564,-0.15264387428760529,-0.011035662144422531,-0.1785033941268921,0.01354008074849844,-0.09076739847660065,0.013479488901793957,-0.08409460633993149,-0.09023357927799225,0.030582064762711525,-0.022566137835383415,-0.12583668529987335,0.045002151280641556,0.14854943752288818,-0.02818109467625618,-0.1437750905752182,-0.15276502072811127,-0.006094953045248985,-0.09957385808229446,-0.21015304327011108,-0.1898687332868576,0.04589906707406044,0.0941949412226677,0.006774596869945526,0.054821569472551346,-0.1304309070110321,-0.12608571350574493,-0.10769104957580566,-0.05323151871562004,0.043966103345155716,-0.07569973170757294,0.08999793976545334,-0.11701025068759918,-0.08695650845766068,-0.19029980897903442,-0.2555559575557709,-0.23813967406749725,-0.2216300368309021,-0.11379066854715347,-0.006110904272645712,-0.11054308712482452,-0.08858827501535416,0.0042467317543923855,-0.11309684067964554,-0.007141974754631519,0.04805179685354233,0.02732997201383114,-0.08546880632638931,0.00030579656595364213,0.02576233260333538,-0.01576785184442997,-0.1905195713043213,-0.28930678963661194,-0.15384775400161743,0.012280280701816082,0.07358744740486145,0.10218624025583267,0.07622817158699036,-0.012476586736738682,0.12324247509241104,0.18376204371452332,0.07591509073972702,-0.11100440472364426,-0.05624202638864517,-0.0189858116209507,-0.08044228702783585,0.087492935359478,0.017466086894273758,-0.021542390808463097,0.20194201171398163,0.18053412437438965,0.19725412130355835,0.16193188726902008,0.018977656960487366,0.0012779064709320664,0.032643891870975494,0.026176106184720993,0.09470323473215103,-0.023598505184054375,0.12539510428905487,0.09414233267307281,0.182892844080925,0.13557307422161102,0.1536715179681778,-0.0057060266844928265,0.11371740698814392,-0.10219698399305344,0.20365406572818756,0.13695067167282104,0.09826039522886276,0.03815891966223717,0.19920256733894348,0.08430075645446777,0.11417923867702484,0.167382150888443,-0.06077219545841217,0.16834068298339844,-0.008139914833009243,0.08261127024888992,-0.0524037703871727,-0.13224808871746063,-0.06894683092832565,0.042827896773815155,-0.04194306954741478,-0.20281122624874115,-0.08487597852945328,0.06802796572446823,-0.08438923209905624,-0.13527812063694,-0.058022480458021164,-0.03736472129821777,0.03823767974972725,-0.06715555489063263,-0.035746414214372635,0.15853460133075714,0.1740133911371231,0.025237349793314934,-0.07228408008813858,0.10263152420520782,-0.07252489030361176,-0.03549809381365776,-0.16812267899513245,-0.04824452102184296,0.07754634320735931,0.032974351197481155,0.2697688341140747,0.0920768603682518,0.11244127154350281,0.07466474920511246,0.05041886493563652,0.1387767791748047,0.07668524235486984,-0.03163231909275055,0.06815365701913834,0.2773789167404175,0.17857567965984344,0.03513193875551224,0.016456663608551025,0.1444869339466095,0.025233272463083267,-0.11199072003364563,-0.00850310642272234,0.062464356422424316,0.12353189289569855,0.05466167628765106,0.17551001906394958,0.10764732956886292,0.07697760313749313,-0.02709568850696087,-0.07295937836170197,0.13787421584129333,0.13088572025299072,0.13606329262256622,-0.027934450656175613,-0.08687648922204971,-0.10772023350000381,-0.14685013890266418,-0.16457778215408325,-0.19394248723983765,-0.09405076503753662,-0.006559895351529121,-0.029772726818919182,0.058567434549331665,0.031407758593559265,-0.06693406403064728,-0.052200742065906525,-0.034842267632484436,0.015497179701924324,0.016179053112864494,-0.05338173732161522,-0.015888748690485954,-0.10836119204759598,-0.1168336570262909,-0.20153136551380157,-0.14409036934375763,-0.03948762267827988,0.04634395241737366,0.00729330163449049,-0.038679324090480804,0.07655137032270432,0.009612252935767174,0.1183977797627449,-0.027370182797312737,0.05269477888941765,0.06296227872371674,0.021706141531467438,-0.10150881111621857,0.06564570963382721,0.06604912132024765,-0.04644593968987465,0.16668932139873505,0.17145735025405884,0.04670870676636696,0.16401009261608124,0.07400352507829666,0.040398020297288895,-0.006351784337311983,-0.018660854548215866,0.09276600927114487,-0.13624310493469238,0.05807600915431976,-0.002010978991165757,0.12522044777870178,0.043945588171482086,0.03783349692821503,0.06727910041809082,0.12886954843997955,-0.1947859823703766,0.1448037326335907,0.12926678359508514,-0.005420629866421223,-0.07535351812839508,0.09432952105998993,0.0378400981426239,0.023206576704978943,0.11200679838657379,0.013827264308929443,0.1566903442144394,0.018544849008321762,0.10169122368097305,-0.060514699667692184,-0.26466915011405945,-0.22709472477436066,-0.0785406082868576,-0.12568461894989014,-0.22724242508411407,-0.238907128572464,0.106463223695755,0.012362892739474773,0.038540925830602646,0.1604442596435547,0.14367546141147614,0.0970253050327301,0.1378786563873291,0.0060669127851724625,0.09841708838939667,-0.015864064916968346,-0.022919192910194397,0.11015314608812332,0.28114038705825806,0.23259539902210236,0.2316889762878418,0.1785372942686081,0.14642588794231415,0.19974534213542938,-0.08863360434770584,0.07859539240598679,-0.12262827157974243,0.06869823485612869,0.1922626495361328,0.25860920548439026,0.422556072473526,0.29994669556617737,0.09251662343740463,0.21732427179813385,0.28895285725593567,-0.10266921669244766,-0.21580290794372559,-0.1941961944103241,0.0732567235827446,0.14799469709396362,0.11653823405504227,0.16454288363456726,0.12351423501968384,0.18065007030963898,0.1363052874803543,0.21762502193450928,-0.20039181411266327,-0.2219640165567398,-0.1651068776845932,-0.008439842611551285,0.10027133673429489,0.14084286987781525,0.2205694168806076,-0.034794166684150696,-0.10336141288280487,-0.09207344055175781,-0.23672662675380707,-0.377758264541626,-0.3421536386013031,-0.1893339604139328,-0.016574736684560776,-0.0026842618826776743,-0.026805972680449486,-0.008302771486341953,-0.16532370448112488,-0.1028129979968071,-0.020516948774456978,-0.15579497814178467,-0.16092349588871002,-0.10556193441152573,-0.05028320848941803,-0.1030542403459549,-0.1159982830286026,-0.24646896123886108,-0.09896804392337799,-0.08376074582338333,-0.04916585236787796,-0.2705594599246979,-0.19409501552581787,-0.09344910085201263,0.013535179197788239,0.02851400524377823,-0.12098248302936554,-0.022977670654654503,-0.027496296912431717,-0.14059171080589294,-0.2036581039428711,-0.11006615310907364,-0.1470848172903061,-0.13567176461219788,0.008308211341500282,0.055019211024045944,-0.00902875978499651,0.08995410799980164,-0.10907956212759018,-0.10104396939277649,-0.08737625181674957,-0.273526668548584,0.03314238041639328,-0.2418929636478424,0.10193561762571335,-0.10669317841529846,0.09625722467899323,-0.09440722316503525,0.021006865426898003,-0.05768187344074249,-0.018435638397932053,-0.21277591586112976,0.148130863904953,0.016762718558311462,-0.013705396093428135,-0.003927993588149548,0.11488600075244904,0.0027027204632759094,0.11151502281427383,0.08095364272594452,-0.19711339473724365,0.0020817341282963753,-0.04564787819981575,0.015161680057644844,-0.05084316432476044,-0.22522015869617462,-0.1048782616853714,-0.03449658676981926,-0.08312659710645676,-0.08422859013080597,-0.0895753726363182,-0.004062151536345482,-0.015588889829814434,-0.13682705163955688,-0.18662868440151215,-0.11668461561203003,-0.1612103283405304,-0.11748497188091278,-0.16002057492733002,-0.08613292127847672,0.00022595739574171603,-0.028468839824199677,-0.10704177618026733,0.008132949471473694,0.016154831275343895,-0.07300973683595657,-0.10978701710700989,-0.12225832045078278,-0.05670659616589546,-0.1117597296833992,-0.022233158349990845,0.00013058335753157735,-0.19337764382362366,0.12038721144199371,0.2800601124763489,0.1295701414346695,0.07468710839748383,0.09089233726263046,-0.06502629071474075,-0.021543093025684357,-0.009320222772657871,-0.10301339626312256,-0.059668246656656265,-0.028092721477150917,0.1331171840429306,0.20669469237327576,0.15955324470996857,0.02625894360244274,0.10163412243127823,-0.055536411702632904,0.04587695747613907,-0.17928890883922577,-0.17965076863765717,-0.04912993684411049,-0.041291244328022,0.1583666354417801,0.11253317445516586,0.0784439891576767,0.09499766677618027,-0.01430236455053091,-0.02124890312552452,-0.08881192654371262,-0.05126034468412399,-0.1271364837884903,0.016322260722517967,-0.10198141634464264,0.14184260368347168,0.05875115469098091,0.06280282884836197,0.1241748109459877,0.05858861654996872,-0.1470802128314972,-0.11341485381126404,-0.24748921394348145,-0.18104080855846405,-0.16932126879692078,-0.10727483779191971,0.007219498977065086,0.10082045197486877,0.11371126025915146,-0.060911644250154495,0.06323380768299103,-0.14237716794013977,-0.10231892764568329,-0.22832663357257843,-0.1556568741798401,-0.12301699817180634,-0.17723305523395538,-0.025914236903190613,-0.05032368749380112,-0.03513722866773605,-0.043074410408735275,-0.07197272032499313,-0.0033876278903335333,-0.020376842468976974,-0.10775405913591385,-0.13306833803653717,-0.12928538024425507,-0.14770489931106567,-0.029931088909506798,0.006056647282093763,-0.03307824209332466,-0.030733751133084297,-0.16440841555595398,-0.1665603369474411,-0.1802743822336197,-0.1585974097251892,-0.1608313024044037,-0.04739045351743698,-0.0004873083671554923,0.08825674653053284,0.001523042912594974,-0.018660901114344597,-0.00323996739462018,-0.1102103441953659,-0.09998922795057297,-0.16518555581569672,-0.2196885347366333,-0.20301711559295654,-0.11032936722040176,-0.10229634493589401,0.018216857686638832,-0.004143435508012772,-0.13281714916229248,-0.1577259749174118,-0.08874743431806564,-0.12540015578269958,-0.056770436465740204,-0.20057526230812073,-0.16635333001613617,-0.03227361664175987,-0.024345440790057182,0.18591323494911194,0.17757710814476013,0.021445617079734802,0.04757184535264969,0.024508526548743248,-0.018180184066295624,0.05497165396809578,-0.022723829373717308,0.04005156457424164,0.11802758276462555,0.08823936432600021,0.15558962523937225,0.0776960477232933,0.047313570976257324,0.07547293603420258,0.11497008055448532,-0.02318284846842289,0.10300296545028687,0.024593351408839226,0.09254703670740128,0.1365220695734024,0.019160199910402298,0.23577064275741577,0.2834819257259369,0.1755865067243576,0.14510869979858398,0.15809084475040436,0.1208004280924797,0.18042106926441193,0.06465715914964676,-0.034886784851551056,0.14525465667247772,0.12753087282180786,0.31198346614837646,0.20834249258041382,0.16092456877231598,0.09554550051689148,0.19711877405643463,0.08439364284276962,0.2374209314584732,-0.09085690230131149,0.007598097436130047,0.036627624183893204,0.05306517705321312,0.2664463520050049,0.2216944843530655,0.09001913666725159,0.0955616682767868,0.0553152821958065,0.09122462570667267,0.03295106813311577,0.01896977610886097,-0.0293718371540308,0.09708691388368607,0.07101995497941971,0.2725449800491333,0.10463728755712509,0.10600701719522476,0.19413694739341736,0.07857730984687805,0.004831972531974316,0.033383794128894806,-0.12886175513267517,-0.10985466837882996,-0.01564684882760048,0.0834609717130661,0.11562464386224747,0.10807349532842636,0.13636894524097443,0.05096865072846413,0.1586710810661316,-0.060723092406988144,0.01970694400370121,-0.11359124630689621,-0.05286789312958717,0.0027976767159998417,-0.10942312330007553,0.23347973823547363,0.0770556852221489,0.10454448312520981,0.09784478694200516,0.06627708673477173,0.11852803826332092,0.041940413415431976,0.08877304196357727,-0.030419157817959785,-0.01592227816581726,-0.023151058703660965,0.1515050083398819,0.1378166824579239,0.07752267271280289,0.06981968879699707,0.0074339392594993114,0.07710399478673935,0.0006566456286236644,-0.01113130897283554,-0.0028505630325526,0.07541438192129135,0.06802942603826523,0.3492129445075989,0.11727205663919449,0.0840388685464859,0.09118609875440598,0.09101030975580215,0.06874392181634903,0.002898641861975193,-0.05667692795395851,-0.1223645880818367,-0.029202239587903023,0.017482861876487732,0.2739701569080353,0.21265321969985962,-0.022262215614318848,0.04214232787489891,0.1053619533777237,0.025644414126873016,0.16389359533786774,-0.04756128042936325,0.01671651564538479,0.03126407787203789,0.06117209792137146,-0.16285328567028046,-0.17727184295654297,-0.3529778718948364,-0.2079593688249588,-0.15790194272994995,-0.28226804733276367,-0.25819772481918335,-0.2653612196445465,-0.26531532406806946,-0.17342406511306763,-0.07308506220579147,-0.2621455788612366,-0.25686177611351013,-0.27846670150756836,-0.28019383549690247,-0.12902764976024628,-0.1205572634935379,0.015501394867897034,-0.11728126555681229,-0.06648111343383789,0.07476948201656342,-0.16559743881225586,-0.17987500131130219,-0.06478257477283478,-0.05172320455312729,-0.07017049193382263,0.033921822905540466,-0.029747793450951576,0.1603638380765915,0.06791655719280243,0.00029892256134189665,0.0919354110956192,-0.001808973727747798,-0.08788996189832687,-0.07673585414886475,-0.010250152088701725,-0.1945221871137619,-0.10564202815294266,-0.16664884984493256,0.16343630850315094,-0.22372616827487946,-0.14131055772304535,-0.04389096796512604,-0.031004026532173157,-0.14304858446121216,-0.09405551105737686,-0.062496475875377655,-0.012463046237826347,-0.17138712108135223,-0.017535388469696045,0.014085252769291401,0.09789874404668808,0.00613341573625803,0.037061456590890884,-0.056643128395080566,0.017943723127245903,-0.053540755063295364,-0.1008029654622078,-0.05058661848306656,-0.11829356849193573,-0.04255670681595802,-0.0418533980846405,-0.17440177500247955,-0.044740598648786545,-0.09242860972881317,-0.12347183376550674,-0.04413708671927452,0.018531320616602898,-0.04327894374728203,-0.06951747089624405,0.14180245995521545,-0.11718827486038208,0.08146364986896515,-0.12791919708251953,0.02709585428237915,-0.004368767142295837,-0.21335019171237946,-0.009299712255597115,-0.05979938060045242,-0.050847262144088745,0.06055532768368721,0.12729330360889435,0.09458523988723755,0.15471450984477997,0.03555622324347496,-0.1005089208483696,-0.1335562765598297,-0.3492710590362549,-0.05607668310403824,-0.06652850657701492,-0.077357716858387,-0.12952527403831482,-0.06768304109573364,0.020523104816675186,0.00026650141808204353,-0.02126583643257618,-0.0491129532456398,-0.054063647985458374,-0.18098144233226776,0.012990312650799751,-0.18166863918304443,-0.13312917947769165,0.010478690266609192,0.03236670419573784,0.1619703471660614,0.07186531275510788,-0.022853204980492592,-0.027355270460247993,0.047610651701688766,-0.1882196068763733,-0.07147740572690964,-0.12295552343130112,-0.21868692338466644,-0.11080708354711533,0.007135540712624788,-0.05129270255565643,0.1568005383014679,0.11668988317251205,0.149733304977417,0.1550077199935913,0.01453378051519394,0.10579264909029007,0.016701437532901764,0.026174994185566902,0.11657080054283142,0.137530118227005,0.09705329686403275,-0.022536128759384155,0.07201289385557175,0.09020913392305374,0.07035849988460541,-0.001406653318554163,0.23216384649276733,0.10015138238668442,-0.08386244624853134,-0.07599657028913498,-0.11590666323900223,-0.08820207417011261,-0.024429500102996826,0.11882831901311874,0.07135307788848877,-0.13230538368225098,0.048641446977853775,0.03915926069021225,0.09221091121435165,-0.06478480249643326,0.07695847749710083,0.032522883266210556,0.12775608897209167,-0.019141970202326775,0.0066091339103877544,-0.1324397623538971,0.028924593701958656,0.010347304865717888,0.13194851577281952,0.009259361773729324,0.10514334589242935,0.21058396995067596,0.15328025817871094,-0.02173616550862789,-0.15385140478610992,-0.15937179327011108,0.004736057482659817,-0.009474841877818108,0.18597637116909027,0.04150436818599701,0.15565961599349976,0.18744772672653198,0.25359204411506653,0.1354951709508896,0.06968889385461807,0.055960122495889664,0.16816885769367218,0.04622940719127655,0.0002553780796006322,0.007830820046365261,0.14473381638526917,0.20085449516773224,0.14275789260864258,0.13005928695201874,0.09640542417764664,0.09318330138921738,-0.016244372352957726,-0.1592046022415161,0.1465683877468109,0.23850083351135254,0.2617809474468231,0.3204544186592102,0.09378095716238022,0.024871785193681717,0.1299789994955063,-0.11780458688735962,0.0018681862857192755,0.012054698541760445,0.04038888216018677,0.0900372639298439,-0.01005545724183321,0.07466442137956619,0.2322242558002472,0.18296875059604645,0.275260865688324,0.1501152068376541,0.015496212057769299,-0.003660264192149043,-0.09655199944972992,0.09427890181541443,0.05617846921086311,0.1532031148672104,-0.04103183001279831,0.1496332585811615,0.20169182121753693,0.060470305383205414,-0.0013041795464232564,-0.014419719576835632,0.09196717292070389,0.003956855274736881,0.08885125070810318,0.1637493520975113,0.2999042570590973,0.0840696319937706,0.024208055809140205,0.08876872807741165,0.04524300619959831,-0.10645727813243866,-0.1860027313232422,-0.232356995344162,-0.4181126654148102,-0.2268878072500229,-0.12341037392616272,0.05440813675522804,0.10242163389921188,0.04787793755531311,0.038143008947372437,0.09780549257993698,-0.07806491106748581,-0.35297542810440063,-0.20436449348926544,-0.1238248348236084,-0.1584978699684143,0.0460662841796875,0.015484226867556572,-0.03170490637421608,-0.06450586766004562,-0.09472684562206268,-0.03647324815392494,0.022902807220816612,-0.03933507576584816,0.007196551188826561,-0.0732494443655014,-0.009819112718105316,-0.024227440357208252,-0.016334248706698418,-0.08755145221948624,0.03677823767066002,0.03955981880426407,-0.2550472021102905,-0.11430807411670685,-0.15221303701400757,-0.11416158080101013,-0.13500100374221802,0.017537211999297142,0.062146998941898346,-0.1278286725282669,-0.0777110606431961,-0.1526145040988922,-0.027889356017112732,-0.10355554521083832,-0.02249719761312008,-0.07983971387147903,0.07008889317512512,-0.02810288779437542,0.030516941100358963,-0.14530235528945923,0.02524869330227375,-0.18864452838897705,-0.03061976656317711,-0.1264679729938507,0.0628402829170227,0.10422761738300323,0.09757678955793381,-0.09997501969337463,-0.21382156014442444,-0.24041125178337097,-0.10845322906970978,-0.06429273635149002,0.14343072474002838,-0.1586030125617981,-0.04198312759399414,0.0899382159113884,0.044938646256923676,0.0567467138171196,0.0018852067878469825,-0.00017143378499895334,0.1421811282634735,-0.030986446887254715,-0.13008058071136475,-0.05834909528493881,-0.13353951275348663,0.05633886530995369,-0.10322348773479462,-0.03256803750991821,0.011338633485138416,-0.00951518677175045,-0.10002051293849945,-0.1781337708234787,0.08065158128738403,0.14037130773067474,0.1429722011089325,0.10586310178041458,-0.08223972469568253,-0.21019329130649567,-0.04849949851632118,-0.284868985414505,-0.12599237263202667,-0.005154011771082878,-0.07121127843856812,0.021663665771484375,-0.13670600950717926,0.017120370641350746,-0.04756592586636543,-0.05264781042933464,0.027139604091644287,0.0168292373418808,-0.13168218731880188,-0.19777120649814606,-0.15233536064624786,0.02475196123123169,0.0401950366795063,0.0952904000878334,-0.04523720219731331,-0.059744853526353836,-0.02313951775431633,-0.07708818465471268,0.005075141787528992,0.09987931698560715,0.172674298286438,0.08670473843812943,0.24630188941955566,0.19911646842956543,0.24269649386405945,0.04594190791249275,-0.07299938052892685,-0.09160414338111877,0.024570146575570107,-0.07902365177869797,-0.076443612575531,-0.07989151775836945,-0.2138838917016983,-0.03363930806517601,-0.11400848627090454,0.04674499109387398,0.02683999203145504,-0.026980619877576828,0.09853972494602203,0.148895725607872,-0.001048157922923565,-0.19373854994773865,0.053439661860466,-0.004021624103188515,-0.004720829427242279,0.13232970237731934,0.07752639800310135,-0.05238651484251022,-0.3318605124950409,-0.2486293464899063,-0.18862944841384888,-0.046606119722127914,0.018745001405477524,0.03475652262568474,0.12752465903759003,0.17137600481510162,0.05182400718331337,0.01886378414928913,0.053809404373168945,-0.19792619347572327,-0.21442469954490662,-0.34235522150993347,-0.12492978572845459,-0.1264452338218689,-0.07410380989313126,-0.011615149676799774,0.045035261660814285,0.03298315778374672,-0.05801863223314285,0.10626499354839325,-0.30227845907211304,-0.15662144124507904,-0.14212195575237274,-0.061770204454660416,-0.1696392297744751,0.07401732355356216,-0.07943986356258392,0.04293791577219963,-0.1479635089635849,0.011508901603519917,-0.022769711911678314,-0.1172870323061943,-0.10081738233566284,0.14793090522289276,0.11954164505004883,-0.012458539567887783,-0.01724850945174694,-0.03376048803329468,-0.00580142717808485,0.03062788024544716,0.013373223133385181,0.14462348818778992,-0.1627919226884842,0.05536067858338356,0.12276467680931091,0.08350735902786255,0.054433103650808334,0.062393758445978165,0.12266126275062561,0.33673933148384094,-0.01704513654112816,-0.0353391133248806,0.01944359391927719,-0.11082980781793594,0.03690106049180031,-0.019281184300780296,0.05887214094400406,0.09166944026947021,0.18770360946655273,0.1952480673789978,-0.00475417822599411,0.13241948187351227,0.2276824563741684,0.2064826488494873,0.16711625456809998,-0.11033215373754501,-0.016349490731954575,0.059039629995822906,-0.0006186965620145202,0.07830165326595306,0.07272594422101974,0.20924381911754608,0.09087440371513367,0.09235301613807678,0.09963412582874298,0.030907198786735535,0.004704048857092857,0.14888523519039154,0.1122543141245842,0.04119417071342468,-0.027160312980413437,0.002683021128177643,0.20931372046470642,0.1922888159751892,0.1953790783882141,0.014547234401106834,0.007132696453481913,0.06076359748840332,0.00716656818985939,0.08119352161884308,0.15759721398353577,0.2273990660905838,0.14219699800014496,0.27773329615592957,0.2180231362581253,0.19481666386127472,0.09299751371145248,-0.08987925201654434,-0.049249421805143356,0.15220876038074493,0.009513950906693935,-0.049182623624801636,-0.003618176095187664,-0.16932269930839539,0.11716340482234955,-0.017019642516970634,-0.06011820212006569,-0.11202065646648407,0.039876919239759445,0.035891637206077576,0.13761048018932343,0.05864204838871956,-0.06599488854408264,0.19721314311027527,0.17146001756191254,0.10553282499313354,0.11462713778018951,-0.037559278309345245,-0.10229858011007309,0.12930545210838318,0.19855819642543793,0.33064645528793335,0.11100857704877853,0.18824809789657593,0.15043984353542328,0.0012728364672511816,0.15932641923427582,0.12083457410335541,0.24840416014194489,0.15748418867588043,0.07274764776229858,0.07121720910072327,0.2614632844924927,0.1984860897064209,0.10240410268306732,0.13318592309951782,0.19707639515399933,0.12299787253141403,0.11449775844812393,0.1393570750951767,0.03136208653450012,-0.05173257365822792,-0.033090561628341675,0.5129029154777527,0.13231989741325378,0.12270419299602509,0.14566326141357422,0.23154865205287933,0.15907974541187286,0.05436393618583679,0.16610930860042572,0.08127991855144501,0.10736608505249023,-0.0917610451579094,0.10010458528995514,0.06779840588569641,-0.007439014967530966,-0.002970806322991848,0.2277424931526184,0.20208880305290222,0.16832271218299866,0.1400381475687027,0.14164279401302338,0.020504817366600037,-0.059950754046440125,0.0034564349334686995,0.010066105984151363,0.23315881192684174,0.16885152459144592,0.11715681850910187,0.28633999824523926,0.18090157210826874,0.07259637117385864,0.09723484516143799,0.04363982006907463,-0.06260771304368973,0.12278655916452408,0.07461950927972794,0.14465992152690887,-0.08815563470125198,0.032664183527231216,0.1384708434343338,0.11342820525169373,0.15379606187343597,0.12542328238487244,-0.1737358272075653,-0.040644966065883636,0.09867968410253525,-0.1757691204547882,-0.0019319932907819748,0.036324042826890945,-0.08410163968801498,-0.08046959340572357,0.03880429267883301,0.07770989090204239,0.07296443730592728,-0.13148510456085205,-0.14876532554626465,0.03757254779338837,-0.059751324355602264,-0.03692469000816345,-0.07935505360364914,-0.07129225879907608,-0.08562110364437103,-0.09006322175264359,0.039812035858631134,0.11206312477588654,-0.18550829589366913,-0.23756682872772217,-0.14570306241512299,-0.07322458177804947,-0.0498618446290493,-0.07467997819185257,0.010222457349300385,-0.07744046300649643,-0.025485865771770477,0.014255995862185955,0.0278360266238451,-0.13886213302612305,-0.2450585663318634,-0.23871521651744843,-0.2505957782268524,-0.06769899278879166,-0.15786109864711761,0.0240591149777174,-0.1822524070739746,-0.07652207463979721,-0.03208253160119057,-0.011470380239188671,-0.22927922010421753,-0.19327311217784882,-0.2553536891937256,-0.18273115158081055,-0.018687954172492027,-0.06513490527868271,-0.018692374229431152,-0.07090441137552261,-0.08844482153654099,0.03166143223643303,0.021701360121369362,-0.014706389978528023,-0.12480667978525162,-0.15564380586147308,-0.12366334348917007,0.015468413010239601,0.06235470995306969,-0.11081091314554214,-0.05614197626709938,-0.02312062866985798,0.12779660522937775,0.09233507513999939,-0.15161409974098206,-0.31018561124801636,-0.09213171899318695,-0.14195235073566437,-0.1049722358584404,0.0679837092757225,0.0017668709624558687,-0.06925001740455627,-0.0894237533211708,-0.005316613242030144,-0.05182213336229324,-0.2105819433927536,-0.2593894898891449,0.12333792448043823,-0.20939825475215912,-0.15008938312530518,-0.034557830542325974,0.047533344477415085,0.025930030271410942,-0.12851248681545258,0.042542532086372375,0.031257644295692444,-0.09345129132270813,-0.266595721244812,-0.2320665717124939,-0.23873819410800934,-0.21521088480949402,-0.2663376033306122,0.011156712658703327,0.018999213352799416,-0.09254873543977737,-0.0377669595181942,0.11191054433584213,-0.05008269101381302,-0.18150363862514496,-0.18734194338321686,-0.2581813931465149,-0.121686190366745,-0.1339348703622818,-0.13187043368816376,0.04812099412083626,-0.022599373012781143,-0.09224839508533478,-0.031301140785217285,0.028644578531384468,-0.15939109027385712,-0.09050650149583817,-0.14529667794704437,-0.10006318986415863,-0.1427737921476364,-0.12654946744441986,-0.043550554662942886,-0.09612365812063217,0.06872108578681946,0.04973648488521576,-0.13722559809684753,-0.04729077219963074,0.025838082656264305,-0.1364363133907318,-0.0403837151825428,0.046153474599123,-0.0735556036233902,-0.19688448309898376,-0.015468061901628971,0.10787081718444824,-0.048926107585430145,-0.01122842077165842,-0.13800048828125,0.01586366817355156,0.04459788277745247,-0.01021520420908928,0.033297356218099594,-0.015744648873806,-0.046331536024808884,-0.04050806164741516,-0.00025751537759788334,0.03615466505289078,-0.08009157329797745,-0.08876081556081772,-0.009046164341270924,0.03085634484887123,0.08328473567962646,0.015468697994947433,0.05220433324575424,0.0025826117489486933,0.018106143921613693,0.022178834304213524,0.11550765484571457,0.04417312517762184,-0.1108458936214447,-0.04858465492725372,-0.10824517905712128,0.07380921393632889,-0.050343867391347885,0.14586244523525238,0.03397896885871887,0.06380483508110046,0.09884335845708847,0.21690402925014496,0.0030940209981054068,-0.021387601271271706,-0.07236713171005249,0.06035121530294418,0.1477576643228531,0.030991429463028908,0.04116633161902428,-0.021282607689499855,0.05161658674478531,0.1412586271762848,0.156122088432312,0.07932546734809875,0.15905562043190002,0.08006313443183899,-0.09306450188159943,-0.060225710272789,-0.07783828675746918,-0.10688687115907669,-0.055850591510534286,-0.23889470100402832,-0.08339201658964157,-0.1959952563047409,0.02648981660604477,0.010671645402908325,0.05884414166212082,-0.04744112491607666,-0.1060841828584671,-0.16075119376182556,-0.04237094148993492,-0.013903306797146797,-0.17516188323497772,-0.13935509324073792,-0.2263248860836029,0.04709544777870178,0.017363402992486954,0.20982559025287628,0.016095798462629318,0.007374380249530077,-0.06578399986028671,0.02490747720003128,-0.1210257038474083,-0.1801806390285492,-0.14153257012367249,-0.11955609172582626,0.09950549155473709,0.03405153378844261,-0.03876636549830437,0.07684700936079025,0.0007233176147565246,-0.1714680939912796,-0.07946854084730148,-0.13663449883460999,-0.05539317801594734,-0.11229993402957916,-0.10528230667114258,0.11341536790132523,0.11871803551912308,0.06962912529706955,0.1464761644601822,0.1364670991897583,0.12505893409252167,-0.16065271198749542,-0.12180314213037491,-0.08700544387102127,-0.10001113265752792,-0.1875997632741928,0.27477774024009705,0.15798527002334595,0.277068555355072,0.1673576831817627,0.14536556601524353,0.0894935354590416,-0.02671905793249607,-0.034945420920848846,-0.1099848523736,-0.02443397231400013,-0.1116999015212059,0.20589755475521088,0.25490936636924744,0.26828253269195557,0.15987536311149597,0.12711891531944275,0.07306221127510071,0.015586870722472668,0.005707320291548967,-0.054953109472990036,0.009361069649457932,-0.10385250300168991,0.12469107657670975,0.12538546323776245,0.2290874421596527,0.16690872609615326,0.0741952657699585,0.11806004494428635,0.13184858858585358,0.05271558091044426,-0.012599901296198368,-0.0845213234424591,-0.05821588635444641,0.17983850836753845,0.18035942316055298,0.1720321625471115,0.24092011153697968,0.0761047899723053,0.08464844524860382,0.017032472416758537,0.015262244269251823,-0.08508176356554031,-0.01767519675195217,-0.0516929030418396,0.21460668742656708,0.12437974661588669,0.03677013888955116,0.07768332958221436,0.11506223678588867,0.021736621856689453,0.06371431797742844,-0.026287052780389786,0.060606252402067184,-0.0438825823366642,-0.07340698689222336,0.15665990114212036,0.18818292021751404,0.08264859020709991,0.20509900152683258,0.23931364715099335,0.12092269212007523,0.07457931339740753,-0.0334465429186821,-0.0008937091333791614,0.09135304391384125,0.0030229792464524508};
const TPrecision Conv22__ocr_biases[] = {-0.37578925490379333,0.1251930445432663,-0.18063461780548096,-0.5164316296577454,-0.624708890914917,-0.6363233923912048,-0.9061366319656372,-0.7260285019874573,0.5172298550605774,0.49239444732666016,-0.13302041590213776,-0.5152196884155273};
const TPrecision BatchNormalization25__ocr_beta[] = {-0.1943509876728058,-0.13803115487098694,-0.1862296760082245,0.024820854887366295,-0.082637719810009,0.21543028950691223,-0.08776958286762238,-0.0042574177496135235,-0.002063312102109194,0.09851307421922684,-0.05657173693180084,-0.10113460570573807};
const TPrecision BatchNormalization25__ocr_gamma[] = {0.804297924041748,1.0076528787612915,1.042885184288025,0.9048715233802795,0.9191334247589111,0.9626021981239319,0.9466699957847595,0.9753431677818298,1.0729464292526245,0.9630613923072815,0.8214753270149231,1.079437255859375};
const TPrecision BatchNormalization25__ocr_moving_mean[] = {1.578291893005371,5.200500965118408,1.7814066410064697,0.8706355690956116,1.170742392539978,1.039663314819336,1.4149011373519897,1.8501332998275757,2.9722089767456055,5.642437934875488,1.1318470239639282,0.7437235713005066};
const TPrecision BatchNormalization25__ocr_moving_variance[] = {3.111889123916626,10.97435188293457,5.114058494567871,3.069744825363159,2.246997117996216,4.9242963790893555,3.103443145751953,3.304379463195801,2.071769952774048,8.301498413085938,2.8828747272491455,1.7610465288162231};
